[{"nodeid": 0, "depth": 0, "split": "voc_roll_mean_15_max", "split_condition": 0.0168854874, "yes": 1, "no": 2, "missing": 2, "children": [{"nodeid": 1, "depth": 1, "split": "hcho_max", "split_condition": 0.00830918178, "yes": 3, "no": 4, "missing": 4, "children": [{"nodeid": 3, "depth": 2, "split": "nh3_roc_mean", "split_condition": 2.93044031e-05, "yes": 7, "no": 8, "missing": 8, "children": [{"nodeid": 7, "leaf": 0.445898265}, {"nodeid": 8, "leaf": 0.128259838}]}, {"nodeid": 4, "depth": 2, "split": "nh3_roll_mean_15_max", "split_condition": 0.00152328005, "yes": 9, "no": 10, "missing": 10, "children": [{"nodeid": 9, "leaf": -0.000242456197}, {"nodeid": 10, "leaf": -0.189680785}]}]}, {"nodeid": 2, "depth": 1, "split": "rh_pct_roc_mean", "split_condition": 0.00132206478, "yes": 5, "no": 6, "missing": 6, "children": [{"nodeid": 5, "depth": 2, "split": "voc_roc_mean", "split_condition": -4.07306579e-05, "yes": 11, "no": 12, "missing": 12, "children": [{"nodeid": 11, "depth": 3, "split": "nh3_roc_mean", "split_condition": 6.74024561e-43, "yes": 15, "no": 16, "missing": 16, "children": [{"nodeid": 15, "leaf": 0.424675137}, {"nodeid": 16, "leaf": -0.144184813}]}, {"nodeid": 12, "depth": 3, "split": "rh_pct_roll_mean_60_slope", "split_condition": 0.00622238871, "yes": 17, "no": 18, "missing": 18, "children": [{"nodeid": 17, "leaf": -0.197469458}, {"nodeid": 18, "leaf": -0.000242456197}]}]}, {"nodeid": 6, "depth": 2, "split": "etoh_ppm_roc_max", "split_condition": -0.00542839896, "yes": 13, "no": 14, "missing": 14, "children": [{"nodeid": 13, "leaf": 0.128259838}, {"nodeid": 14, "leaf": -0.223453641}]}]}]}, {"nodeid": 0, "depth": 0, "split": "etoh_ppm_mean", "split_condition": 0.0304613058, "yes": 1, "no": 2, "missing": 2, "children": [{"nodeid": 1, "depth": 1, "split": "voc_roll_mean_15_max", "split_condition": 0.032068722, "yes": 3, "no": 4, "missing": 4, "children": [{"nodeid": 3, "depth": 2, "split": "rh_pct_roc_mean", "split_condition": 0.129999995, "yes": 7, "no": 8, "missing": 8, "children": [{"nodeid": 7, "leaf": -0.222327426}, {"nodeid": 8, "leaf": 0.257333606}]}, {"nodeid": 4, "depth": 2, "split": "nh3_max", "split_condition": 0.0551239103, "yes": 9, "no": 10, "missing": 10, "children": [{"nodeid": 9, "depth": 3, "split": "nh3_roll_mean_15_std", "split_condition": 0.00603768043, "yes": 15, "no": 16, "missing": 16, "children": [{"nodeid": 15, "depth": 4, "split": "nh3_roll_roc_60_slope", "split_condition": -1.91589334e-06, "yes": 19, "no": 20, "missing": 20, "children": [{"nodeid": 19, "depth": 5, "split": "voc_acc_max", "split_condition": 7.99677146e-05, "yes": 21, "no": 22, "missing": 22, "children": [{"nodeid": 21, "leaf": 0.288222939}, {"nodeid": 22, "leaf": -0.143907651}]}, {"nodeid": 20, "depth": 5, "split": "etoh_ppm_max", "split_condition": 0.112146191, "yes": 23, "no": 24, "missing": 24, "children": [{"nodeid": 23, "leaf": 0.447146267}, {"nodeid": 24, "leaf": 0.128727451}]}]}, {"nodeid": 16, "leaf": -0.170170456}]}, {"nodeid": 10, "depth": 3, "split": "nh3_roll_mean_15_max", "split_condition": 0.0543461218, "yes": 17, "no": 18, "missing": 18, "children": [{"nodeid": 17, "leaf": 0.000121322228}, {"nodeid": 18, "leaf": -0.202142209}]}]}]}, {"nodeid": 2, "depth": 1, "split": "h2s_ppm_mean", "split_condition": 0.504613996, "yes": 5, "no": 6, "missing": 6, "children": [{"nodeid": 5, "depth": 2, "split": "nh3_roll_roc_15_max", "split_condition": -4.14863848e-07, "yes": 11, "no": 12, "missing": 12, "children": [{"nodeid": 11, "leaf": 0.310592353}, {"nodeid": 12, "leaf": -0.223741412}]}, {"nodeid": 6, "depth": 2, "split": "rh_pct_mean", "split_condition": 55.8570824, "yes": 13, "no": 14, "missing": 14, "children": [{"nodeid": 13, "leaf": -0.213189006}, {"nodeid": 14, "leaf": 0.41993162}]}]}]}, {"nodeid": 0, "depth": 0, "split": "nh3_roll_mean_15_max", "split_condition": 0.0311117917, "yes": 1, "no": 2, "missing": 2, "children": [{"nodeid": 1, "depth": 1, "split": "rh_pct_mean", "split_condition": 78.6366653, "yes": 3, "no": 4, "missing": 4, "children": [{"nodeid": 3, "depth": 2, "split": "nh3_roc_mean", "split_condition": 7.2556104e-05, "yes": 7, "no": 8, "missing": 8, "children": [{"nodeid": 7, "depth": 3, "split": "hcho_roll_mean_15_slope", "split_condition": 0.000127923064, "yes": 13, "no": 14, "missing": 14, "children": [{"nodeid": 13, "leaf": -0.224118978}, {"nodeid": 14, "depth": 4, "split": "hcho_roc_std", "split_condition": 0.000134537084, "yes": 19, "no": 20, "missing": 20, "children": [{"nodeid": 19, "leaf": 0.18019031}, {"nodeid": 20, "leaf": -0.191699505}]}]}, {"nodeid": 8, "depth": 3, "split": "voc_roll_std_60_max", "split_condition": 0.0122554218, "yes": 15, "no": 16, "missing": 16, "children": [{"nodeid": 15, "leaf": 0.312538654}, {"nodeid": 16, "leaf": -0.175508782}]}]}, {"nodeid": 4, "leaf": 0.360305905}]}, {"nodeid": 2, "depth": 1, "split": "etoh_ppm_roll_std_60_mean", "split_condition": 0.000730931526, "yes": 5, "no": 6, "missing": 6, "children": [{"nodeid": 5, "depth": 2, "split": "hcho_mean", "split_condition": 0.0690328777, "yes": 9, "no": 10, "missing": 10, "children": [{"nodeid": 9, "depth": 3, "split": "nh3_roc_mean", "split_condition": 0.000316751684, "yes": 17, "no": 18, "missing": 18, "children": [{"nodeid": 17, "leaf": -0.209196776}, {"nodeid": 18, "leaf": 0.257333606}]}, {"nodeid": 10, "leaf": 0.40035674}]}, {"nodeid": 6, "depth": 2, "split": "hcho_max", "split_condition": 0.0272142552, "yes": 11, "no": 12, "missing": 12, "children": [{"nodeid": 11, "leaf": -0.128484815}, {"nodeid": 12, "leaf": 0.447188139}]}]}]}, {"nodeid": 0, "depth": 0, "split": "rh_pct_roll_mean_60_slope", "split_condition": 0.00164027046, "yes": 1, "no": 2, "missing": 2, "children": [{"nodeid": 1, "depth": 1, "split": "hcho_roll_mean_15_mean", "split_condition": 0.0229689144, "yes": 3, "no": 4, "missing": 4, "children": [{"nodeid": 3, "depth": 2, "split": "rh_pct_mean", "split_condition": 68.3314438, "yes": 7, "no": 8, "missing": 8, "children": [{"nodeid": 7, "depth": 3, "split": "nh3_roll_roc_60_slope", "split_condition": 6.04045226e-07, "yes": 13, "no": 14, "missing": 13, "children": [{"nodeid": 13, "leaf": 0.302714944}, {"nodeid": 14, "leaf": 0.081426084}]}, {"nodeid": 8, "leaf": -0.120977096}]}, {"nodeid": 4, "leaf": -0.180507541}]}, {"nodeid": 2, "depth": 1, "split": "voc_roll_mean_15_max", "split_condition": 0.0056783976, "yes": 5, "no": 6, "missing": 6, "children": [{"nodeid": 5, "depth": 2, "split": "nh3_roll_mean_15_max", "split_condition": 0.00653090794, "yes": 9, "no": 10, "missing": 10, "children": [{"nodeid": 9, "leaf": 0.28173849}, {"nodeid": 10, "leaf": -0.161217079}]}, {"nodeid": 6, "depth": 2, "split": "rh_pct_roc_mean", "split_condition": -0.0333333351, "yes": 11, "no": 12, "missing": 12, "children": [{"nodeid": 11, "leaf": 0.218812138}, {"nodeid": 12, "depth": 3, "split": "etoh_ppm_roll_roc_15_slope", "split_condition": 0.00017698892, "yes": 15, "no": 16, "missing": 16, "children": [{"nodeid": 15, "leaf": -0.199464649}, {"nodeid": 16, "leaf": 0.0650914535}]}]}]}]}, {"nodeid": 0, "depth": 0, "split": "etoh_ppm_mean", "split_condition": 0.0304613058, "yes": 1, "no": 2, "missing": 2, "children": [{"nodeid": 1, "depth": 1, "split": "voc_roll_mean_15_max", "split_condition": 0.032068722, "yes": 3, "no": 4, "missing": 4, "children": [{"nodeid": 3, "depth": 2, "split": "rh_pct_roc_mean", "split_condition": 0.129999995, "yes": 7, "no": 8, "missing": 8, "children": [{"nodeid": 7, "leaf": -0.19847022}, {"nodeid": 8, "leaf": 0.209376559}]}, {"nodeid": 4, "depth": 2, "split": "nh3_max", "split_condition": 0.0561059155, "yes": 9, "no": 10, "missing": 10, "children": [{"nodeid": 9, "depth": 3, "split": "nh3_roll_std_60_std", "split_condition": 0.00246315775, "yes": 15, "no": 16, "missing": 16, "children": [{"nodeid": 15, "depth": 4, "split": "voc_roll_std_60_max", "split_condition": 0.0312986411, "yes": 17, "no": 18, "missing": 18, "children": [{"nodeid": 17, "depth": 5, "split": "rh_pct_acc_slope", "split_condition": 0.000161155884, "yes": 19, "no": 20, "missing": 20, "children": [{"nodeid": 19, "leaf": 0.302827388}, {"nodeid": 20, "leaf": 0.0600009561}]}, {"nodeid": 18, "leaf": -0.11285346}]}, {"nodeid": 16, "leaf": -0.152147397}]}, {"nodeid": 10, "leaf": -0.181320265}]}]}, {"nodeid": 2, "depth": 1, "split": "h2s_ppm_roll_mean_60_mean", "split_condition": 0.50325197, "yes": 5, "no": 6, "missing": 6, "children": [{"nodeid": 5, "depth": 2, "split": "nh3_roll_roc_15_max", "split_condition": -4.14863848e-07, "yes": 11, "no": 12, "missing": 12, "children": [{"nodeid": 11, "leaf": 0.232472375}, {"nodeid": 12, "leaf": -0.19975023}]}, {"nodeid": 6, "depth": 2, "split": "rh_pct_mean", "split_condition": 56.4350014, "yes": 13, "no": 14, "missing": 14, "children": [{"nodeid": 13, "leaf": -0.188789889}, {"nodeid": 14, "leaf": 0.289748341}]}]}]}, {"nodeid": 0, "depth": 0, "split": "nh3_max", "split_condition": 0.0312439799, "yes": 1, "no": 2, "missing": 2, "children": [{"nodeid": 1, "depth": 1, "split": "rh_pct_mean", "split_condition": 78.6366653, "yes": 3, "no": 4, "missing": 4, "children": [{"nodeid": 3, "depth": 2, "split": "nh3_roc_mean", "split_condition": 7.2556104e-05, "yes": 7, "no": 8, "missing": 8, "children": [{"nodeid": 7, "depth": 3, "split": "hcho_roc_mean", "split_condition": 0.000138095638, "yes": 13, "no": 14, "missing": 14, "children": [{"nodeid": 13, "leaf": -0.200128883}, {"nodeid": 14, "depth": 4, "split": "rh_pct_mean", "split_condition": 60.1816673, "yes": 21, "no": 22, "missing": 22, "children": [{"nodeid": 21, "leaf": -0.172781095}, {"nodeid": 22, "leaf": 0.209257528}]}]}, {"nodeid": 8, "depth": 3, "split": "voc_roll_std_60_max", "split_condition": 0.0122554218, "yes": 15, "no": 16, "missing": 16, "children": [{"nodeid": 15, "depth": 4, "split": "etoh_ppm_mean", "split_condition": 0.148269802, "yes": 23, "no": 24, "missing": 24, "children": [{"nodeid": 23, "leaf": 0.262160867}, {"nodeid": 24, "leaf": 0.08056283}]}, {"nodeid": 16, "leaf": -0.153540984}]}]}, {"nodeid": 4, "leaf": 0.259867251}]}, {"nodeid": 2, "depth": 1, "split": "etoh_ppm_roll_std_60_mean", "split_condition": 0.000730931526, "yes": 5, "no": 6, "missing": 6, "children": [{"nodeid": 5, "depth": 2, "split": "hcho_max", "split_condition": 0.0693810657, "yes": 9, "no": 10, "missing": 10, "children": [{"nodeid": 9, "depth": 3, "split": "nh3_roll_std_60_slope", "split_condition": 2.0089476e-06, "yes": 17, "no": 18, "missing": 18, "children": [{"nodeid": 17, "leaf": -0.185916781}, {"nodeid": 18, "leaf": 0.110100187}]}, {"nodeid": 10, "depth": 3, "split": "hcho_roc_slope", "split_condition": 1.67717496e-06, "yes": 19, "no": 20, "missing": 20, "children": [{"nodeid": 19, "leaf": 0.282710016}, {"nodeid": 20, "leaf": 0.0899697691}]}]}, {"nodeid": 6, "depth": 2, "split": "hcho_max", "split_condition": 0.0442052223, "yes": 11, "no": 12, "missing": 12, "children": [{"nodeid": 11, "leaf": -0.0102860862}, {"nodeid": 12, "leaf": 0.302179158}]}]}]}, {"nodeid": 0, "depth": 0, "split": "rh_pct_roll_mean_60_slope", "split_condition": 0.00164027046, "yes": 1, "no": 2, "missing": 2, "children": [{"nodeid": 1, "depth": 1, "split": "hcho_roll_mean_15_mean", "split_condition": 0.0229689144, "yes": 3, "no": 4, "missing": 4, "children": [{"nodeid": 3, "depth": 2, "split": "rh_pct_mean", "split_condition": 68.3314438, "yes": 7, "no": 8, "missing": 8, "children": [{"nodeid": 7, "depth": 3, "split": "nh3_acc_slope", "split_condition": -1.50777339e-07, "yes": 13, "no": 14, "missing": 14, "children": [{"nodeid": 13, "leaf": 0.055881083}, {"nodeid": 14, "leaf": 0.242326781}]}, {"nodeid": 8, "leaf": -0.106506966}]}, {"nodeid": 4, "leaf": -0.164296001}]}, {"nodeid": 2, "depth": 1, "split": "voc_roll_mean_15_max", "split_condition": 0.0056783976, "yes": 5, "no": 6, "missing": 6, "children": [{"nodeid": 5, "depth": 2, "split": "nh3_roll_mean_15_max", "split_condition": 0.00653090794, "yes": 9, "no": 10, "missing": 10, "children": [{"nodeid": 9, "leaf": 0.22660774}, {"nodeid": 10, "leaf": -0.144321695}]}, {"nodeid": 6, "depth": 2, "split": "rh_pct_roc_mean", "split_condition": -0.0333333351, "yes": 11, "no": 12, "missing": 12, "children": [{"nodeid": 11, "leaf": 0.185721382}, {"nodeid": 12, "depth": 3, "split": "etoh_ppm_roll_roc_15_slope", "split_condition": 0.00017698892, "yes": 15, "no": 16, "missing": 16, "children": [{"nodeid": 15, "depth": 4, "split": "voc_roll_mean_30_slope", "split_condition": -0.000103699422, "yes": 17, "no": 18, "missing": 18, "children": [{"nodeid": 17, "depth": 5, "split": "rh_pct_roll_mean_60_slope", "split_condition": 0.00443150895, "yes": 19, "no": 20, "missing": 20, "children": [{"nodeid": 19, "leaf": 0.0413559936}, {"nodeid": 20, "leaf": -0.147790253}]}, {"nodeid": 18, "leaf": -0.185238436}]}, {"nodeid": 16, "leaf": 0.058021307}]}]}]}]}, {"nodeid": 0, "depth": 0, "split": "etoh_ppm_mean", "split_condition": 0.0304613058, "yes": 1, "no": 2, "missing": 2, "children": [{"nodeid": 1, "depth": 1, "split": "voc_roll_mean_15_max", "split_condition": 0.032068722, "yes": 3, "no": 4, "missing": 4, "children": [{"nodeid": 3, "depth": 2, "split": "rh_pct_roc_mean", "split_condition": 0.129999995, "yes": 7, "no": 8, "missing": 8, "children": [{"nodeid": 7, "leaf": -0.183148369}, {"nodeid": 8, "leaf": 0.171428293}]}, {"nodeid": 4, "depth": 2, "split": "nh3_max", "split_condition": 0.0561059155, "yes": 9, "no": 10, "missing": 10, "children": [{"nodeid": 9, "depth": 3, "split": "nh3_roll_mean_15_std", "split_condition": 0.00603768043, "yes": 15, "no": 16, "missing": 16, "children": [{"nodeid": 15, "depth": 4, "split": "etoh_ppm_roc_max", "split_condition": 0.00622195518, "yes": 17, "no": 18, "missing": 18, "children": [{"nodeid": 17, "depth": 5, "split": "voc_roll_mean_15_slope", "split_condition": -0.00011122616, "yes": 19, "no": 20, "missing": 20, "children": [{"nodeid": 19, "leaf": -0.00730574038}, {"nodeid": 20, "leaf": 0.241605744}]}, {"nodeid": 18, "leaf": -0.109404616}]}, {"nodeid": 16, "leaf": -0.140555963}]}, {"nodeid": 10, "leaf": -0.165103257}]}]}, {"nodeid": 2, "depth": 1, "split": "h2s_ppm_mean", "split_condition": 0.504613996, "yes": 5, "no": 6, "missing": 6, "children": [{"nodeid": 5, "depth": 2, "split": "nh3_roll_roc_15_max", "split_condition": -4.14863848e-07, "yes": 11, "no": 12, "missing": 12, "children": [{"nodeid": 11, "leaf": 0.187764257}, {"nodeid": 12, "leaf": -0.184418082}]}, {"nodeid": 6, "depth": 2, "split": "rh_pct_mean", "split_condition": 55.8570824, "yes": 13, "no": 14, "missing": 14, "children": [{"nodeid": 13, "leaf": -0.172630519}, {"nodeid": 14, "leaf": 0.23156479}]}]}]}, {"nodeid": 0, "depth": 0, "split": "nh3_roll_mean_15_max", "split_condition": 0.0311117917, "yes": 1, "no": 2, "missing": 2, "children": [{"nodeid": 1, "depth": 1, "split": "rh_pct_mean", "split_condition": 78.6366653, "yes": 3, "no": 4, "missing": 4, "children": [{"nodeid": 3, "depth": 2, "split": "nh3_roc_mean", "split_condition": 5.24579991e-05, "yes": 7, "no": 8, "missing": 8, "children": [{"nodeid": 7, "depth": 3, "split": "hcho_roc_slope", "split_condition": -1.76504273e-06, "yes": 13, "no": 14, "missing": 14, "children": [{"nodeid": 13, "depth": 4, "split": "rh_pct_acc_slope", "split_condition": 8.3351606e-06, "yes": 19, "no": 20, "missing": 20, "children": [{"nodeid": 19, "leaf": -0.126388401}, {"nodeid": 20, "leaf": 0.0959632918}]}, {"nodeid": 14, "leaf": -0.184898615}]}, {"nodeid": 8, "depth": 3, "split": "etoh_ppm_roll_std_60_std", "split_condition": 0.00485617295, "yes": 15, "no": 16, "missing": 16, "children": [{"nodeid": 15, "depth": 4, "split": "nh3_acc_slope", "split_condition": 1.11653534e-07, "yes": 21, "no": 22, "missing": 21, "children": [{"nodeid": 21, "leaf": -0.154312924}, {"nodeid": 22, "leaf": 0.0558588952}]}, {"nodeid": 16, "leaf": 0.224974319}]}]}, {"nodeid": 4, "leaf": 0.20838882}]}, {"nodeid": 2, "depth": 1, "split": "nh3_roll_std_30_mean", "split_condition": 6.94670962e-05, "yes": 5, "no": 6, "missing": 6, "children": [{"nodeid": 5, "depth": 2, "split": "nh3_roll_mean_15_max", "split_condition": 0.0543461218, "yes": 9, "no": 10, "missing": 10, "children": [{"nodeid": 9, "leaf": -0.155512601}, {"nodeid": 10, "leaf": 0.0756912902}]}, {"nodeid": 6, "depth": 2, "split": "etoh_ppm_roll_std_60_max", "split_condition": -6.20382052e-05, "yes": 11, "no": 12, "missing": 12, "children": [{"nodeid": 11, "leaf": -0.135410249}, {"nodeid": 12, "depth": 3, "split": "rh_pct_roc_slope", "split_condition": -0.00304251187, "yes": 17, "no": 18, "missing": 17, "children": [{"nodeid": 17, "leaf": -0.126636297}, {"nodeid": 18, "depth": 4, "split": "nh3_acc_std", "split_condition": 2.12899449e-05, "yes": 23, "no": 24, "missing": 24, "children": [{"nodeid": 23, "depth": 5, "split": "nh3_roll_mean_15_max", "split_condition": 0.0531084724, "yes": 25, "no": 26, "missing": 26, "children": [{"nodeid": 25, "leaf": -0.00804790482}, {"nodeid": 26, "leaf": 0.143636689}]}, {"nodeid": 24, "depth": 5, "split": "nh3_max", "split_condition": 0.0325006247, "yes": 27, "no": 28, "missing": 28, "children": [{"nodeid": 27, "leaf": 0.0734148771}, {"nodeid": 28, "leaf": 0.24145034}]}]}]}]}]}]}, {"nodeid": 0, "depth": 0, "split": "rh_pct_roll_mean_60_slope", "split_condition": 0.00164027046, "yes": 1, "no": 2, "missing": 2, "children": [{"nodeid": 1, "depth": 1, "split": "hcho_roll_mean_15_mean", "split_condition": 0.0229689144, "yes": 3, "no": 4, "missing": 4, "children": [{"nodeid": 3, "depth": 2, "split": "rh_pct_mean", "split_condition": 68.3314438, "yes": 7, "no": 8, "missing": 8, "children": [{"nodeid": 7, "depth": 3, "split": "nh3_roll_roc_60_slope", "split_condition": 6.04045226e-07, "yes": 13, "no": 14, "missing": 13, "children": [{"nodeid": 13, "leaf": 0.20990546}, {"nodeid": 14, "leaf": 0.0449108854}]}, {"nodeid": 8, "leaf": -0.0940968245}]}, {"nodeid": 4, "leaf": -0.151277035}]}, {"nodeid": 2, "depth": 1, "split": "voc_roll_mean_15_max", "split_condition": 0.0056783976, "yes": 5, "no": 6, "missing": 6, "children": [{"nodeid": 5, "depth": 2, "split": "nh3_roll_mean_15_max", "split_condition": 0.00653090794, "yes": 9, "no": 10, "missing": 10, "children": [{"nodeid": 9, "leaf": 0.195082024}, {"nodeid": 10, "leaf": -0.131100506}]}, {"nodeid": 6, "depth": 2, "split": "rh_pct_roc_mean", "split_condition": -0.0333333351, "yes": 11, "no": 12, "missing": 12, "children": [{"nodeid": 11, "leaf": 0.15868926}, {"nodeid": 12, "depth": 3, "split": "rh_pct_roll_roc_15_slope", "split_condition": 0.00557782128, "yes": 15, "no": 16, "missing": 16, "children": [{"nodeid": 15, "depth": 4, "split": "voc_roll_mean_30_slope", "split_condition": -0.000103699422, "yes": 17, "no": 18, "missing": 18, "children": [{"nodeid": 17, "depth": 5, "split": "rh_pct_roc_mean", "split_condition": 0.00338983047, "yes": 19, "no": 20, "missing": 20, "children": [{"nodeid": 19, "leaf": 0.0435508266}, {"nodeid": 20, "leaf": -0.135038197}]}, {"nodeid": 18, "leaf": -0.174858809}]}, {"nodeid": 16, "leaf": 0.0511857532}]}]}]}]}, {"nodeid": 0, "depth": 0, "split": "etoh_ppm_mean", "split_condition": 0.0304613058, "yes": 1, "no": 2, "missing": 2, "children": [{"nodeid": 1, "depth": 1, "split": "voc_roll_mean_15_max", "split_condition": 0.032068722, "yes": 3, "no": 4, "missing": 4, "children": [{"nodeid": 3, "depth": 2, "split": "rh_pct_roc_mean", "split_condition": 0.129999995, "yes": 7, "no": 8, "missing": 8, "children": [{"nodeid": 7, "leaf": -0.172521651}, {"nodeid": 8, "leaf": 0.144107103}]}, {"nodeid": 4, "depth": 2, "split": "nh3_max", "split_condition": 0.0561059155, "yes": 9, "no": 10, "missing": 10, "children": [{"nodeid": 9, "depth": 3, "split": "nh3_roll_mean_15_std", "split_condition": 0.00603768043, "yes": 15, "no": 16, "missing": 16, "children": [{"nodeid": 15, "depth": 4, "split": "nh3_roll_roc_60_slope", "split_condition": -1.91589334e-06, "yes": 17, "no": 18, "missing": 18, "children": [{"nodeid": 17, "depth": 5, "split": "voc_acc_max", "split_condition": 7.99677146e-05, "yes": 19, "no": 20, "missing": 20, "children": [{"nodeid": 19, "leaf": 0.157526791}, {"nodeid": 20, "leaf": -0.122554414}]}, {"nodeid": 18, "depth": 5, "split": "rh_pct_acc_slope", "split_condition": 0.000154573907, "yes": 21, "no": 22, "missing": 22, "children": [{"nodeid": 21, "leaf": 0.210163966}, {"nodeid": 22, "leaf": 0.0418562964}]}]}, {"nodeid": 16, "leaf": -0.126612529}]}, {"nodeid": 10, "leaf": -0.15162921}]}]}, {"nodeid": 2, "depth": 1, "split": "h2s_ppm_roll_mean_60_mean", "split_condition": 0.50325197, "yes": 5, "no": 6, "missing": 6, "children": [{"nodeid": 5, "depth": 2, "split": "nh3_roll_roc_15_max", "split_condition": -4.14863848e-07, "yes": 11, "no": 12, "missing": 12, "children": [{"nodeid": 11, "leaf": 0.158487484}, {"nodeid": 12, "leaf": -0.174035102}]}, {"nodeid": 6, "depth": 2, "split": "rh_pct_mean", "split_condition": 56.4350014, "yes": 13, "no": 14, "missing": 14, "children": [{"nodeid": 13, "leaf": -0.160416156}, {"nodeid": 14, "leaf": 0.198877081}]}]}]}, {"nodeid": 0, "depth": 0, "split": "nh3_max", "split_condition": 0.0312439799, "yes": 1, "no": 2, "missing": 2, "children": [{"nodeid": 1, "depth": 1, "split": "rh_pct_mean", "split_condition": 78.6366653, "yes": 3, "no": 4, "missing": 4, "children": [{"nodeid": 3, "depth": 2, "split": "nh3_roc_mean", "split_condition": 5.24579991e-05, "yes": 7, "no": 8, "missing": 8, "children": [{"nodeid": 7, "depth": 3, "split": "h2s_ppm_roll_roc_30_std", "split_condition": 0.000482643722, "yes": 13, "no": 14, "missing": 14, "children": [{"nodeid": 13, "leaf": -0.174593017}, {"nodeid": 14, "depth": 4, "split": "h2s_ppm_mean", "split_condition": 0.131155819, "yes": 19, "no": 20, "missing": 20, "children": [{"nodeid": 19, "leaf": 0.0909031406}, {"nodeid": 20, "leaf": -0.120472319}]}]}, {"nodeid": 8, "depth": 3, "split": "voc_roll_std_30_mean", "split_condition": 0.00443744846, "yes": 15, "no": 16, "missing": 16, "children": [{"nodeid": 15, "depth": 4, "split": "rh_pct_roll_roc_30_slope", "split_condition": -0.000241178102, "yes": 21, "no": 22, "missing": 21, "children": [{"nodeid": 21, "leaf": -0.0255356673}, {"nodeid": 22, "leaf": 0.197471082}]}, {"nodeid": 16, "leaf": -0.131755739}]}]}, {"nodeid": 4, "leaf": 0.176802963}]}, {"nodeid": 2, "depth": 1, "split": "nh3_roll_roc_60_mean", "split_condition": 1.67643466e-05, "yes": 5, "no": 6, "missing": 6, "children": [{"nodeid": 5, "depth": 2, "split": "hcho_roll_mean_15_slope", "split_condition": -1.86087691e-05, "yes": 9, "no": 10, "missing": 10, "children": [{"nodeid": 9, "leaf": 0.0666962564}, {"nodeid": 10, "leaf": -0.147200227}]}, {"nodeid": 6, "depth": 2, "split": "etoh_ppm_roll_std_60_max", "split_condition": -6.20382052e-05, "yes": 11, "no": 12, "missing": 12, "children": [{"nodeid": 11, "leaf": -0.123716116}, {"nodeid": 12, "depth": 3, "split": "rh_pct_roll_roc_15_slope", "split_condition": 0.00129721221, "yes": 17, "no": 18, "missing": 18, "children": [{"nodeid": 17, "depth": 4, "split": "nh3_roll_std_60_mean", "split_condition": 9.94566581e-05, "yes": 23, "no": 24, "missing": 24, "children": [{"nodeid": 23, "leaf": 0.0305809658}, {"nodeid": 24, "depth": 5, "split": "h2s_ppm_acc_mean", "split_condition": -3.42801723e-05, "yes": 25, "no": 26, "missing": 26, "children": [{"nodeid": 25, "leaf": 0.0519304574}, {"nodeid": 26, "leaf": 0.208963424}]}]}, {"nodeid": 18, "leaf": -0.0983651057}]}]}]}]}, {"nodeid": 0, "depth": 0, "split": "rh_pct_roll_mean_60_slope", "split_condition": 0.00164027046, "yes": 1, "no": 2, "missing": 2, "children": [{"nodeid": 1, "depth": 1, "split": "hcho_roll_mean_15_mean", "split_condition": 0.0229689144, "yes": 3, "no": 4, "missing": 4, "children": [{"nodeid": 3, "depth": 2, "split": "rh_pct_mean", "split_condition": 68.2366638, "yes": 7, "no": 8, "missing": 8, "children": [{"nodeid": 7, "depth": 3, "split": "hcho_roll_roc_15_slope", "split_condition": 7.76364686e-07, "yes": 13, "no": 14, "missing": 13, "children": [{"nodeid": 13, "leaf": 0.190350085}, {"nodeid": 14, "leaf": 0.0303061493}]}, {"nodeid": 8, "leaf": -0.0420647226}]}, {"nodeid": 4, "leaf": -0.14031972}]}, {"nodeid": 2, "depth": 1, "split": "voc_roll_mean_15_max", "split_condition": 0.0056783976, "yes": 5, "no": 6, "missing": 6, "children": [{"nodeid": 5, "depth": 2, "split": "nh3_roll_mean_15_max", "split_condition": 0.00653090794, "yes": 9, "no": 10, "missing": 10, "children": [{"nodeid": 9, "leaf": 0.174508035}, {"nodeid": 10, "leaf": -0.118804403}]}, {"nodeid": 6, "depth": 2, "split": "rh_pct_roc_mean", "split_condition": -0.0333333351, "yes": 11, "no": 12, "missing": 12, "children": [{"nodeid": 11, "leaf": 0.13759321}, {"nodeid": 12, "depth": 3, "split": "etoh_ppm_roc_slope", "split_condition": -0.000207190722, "yes": 15, "no": 16, "missing": 15, "children": [{"nodeid": 15, "leaf": 0.0553991385}, {"nodeid": 16, "depth": 4, "split": "voc_roll_mean_30_slope", "split_condition": -0.000103699422, "yes": 17, "no": 18, "missing": 18, "children": [{"nodeid": 17, "depth": 5, "split": "voc_acc_slope", "split_condition": -3.76094889e-08, "yes": 19, "no": 20, "missing": 20, "children": [{"nodeid": 19, "leaf": 0.0306931175}, {"nodeid": 20, "leaf": -0.122755818}]}, {"nodeid": 18, "leaf": -0.167510882}]}]}]}]}]}, {"nodeid": 0, "depth": 0, "split": "etoh_ppm_mean", "split_condition": 0.0304613058, "yes": 1, "no": 2, "missing": 2, "children": [{"nodeid": 1, "depth": 1, "split": "voc_roll_mean_15_max", "split_condition": 0.032068722, "yes": 3, "no": 4, "missing": 4, "children": [{"nodeid": 3, "depth": 2, "split": "rh_pct_roc_mean", "split_condition": 0.129999995, "yes": 7, "no": 8, "missing": 8, "children": [{"nodeid": 7, "leaf": -0.164772272}, {"nodeid": 8, "leaf": 0.123764969}]}, {"nodeid": 4, "depth": 2, "split": "nh3_max", "split_condition": 0.0561059155, "yes": 9, "no": 10, "missing": 10, "children": [{"nodeid": 9, "depth": 3, "split": "nh3_roll_mean_15_std", "split_condition": 0.00603768043, "yes": 15, "no": 16, "missing": 16, "children": [{"nodeid": 15, "depth": 4, "split": "nh3_roll_roc_60_slope", "split_condition": -1.91589334e-06, "yes": 17, "no": 18, "missing": 18, "children": [{"nodeid": 17, "depth": 5, "split": "voc_acc_max", "split_condition": 7.99677146e-05, "yes": 19, "no": 20, "missing": 20, "children": [{"nodeid": 19, "leaf": 0.140842751}, {"nodeid": 20, "leaf": -0.108941615}]}, {"nodeid": 18, "depth": 5, "split": "rh_pct_acc_slope", "split_condition": 0.000154573907, "yes": 21, "no": 22, "missing": 22, "children": [{"nodeid": 21, "leaf": 0.190695435}, {"nodeid": 22, "leaf": 0.0292701442}]}]}, {"nodeid": 16, "leaf": -0.114474766}]}, {"nodeid": 10, "leaf": -0.140218347}]}]}, {"nodeid": 2, "depth": 1, "split": "h2s_ppm_roll_mean_60_mean", "split_condition": 0.50325197, "yes": 5, "no": 6, "missing": 6, "children": [{"nodeid": 5, "depth": 2, "split": "nh3_roll_roc_15_max", "split_condition": -4.14863848e-07, "yes": 11, "no": 12, "missing": 12, "children": [{"nodeid": 11, "leaf": 0.137276486}, {"nodeid": 12, "leaf": -0.1666729}]}, {"nodeid": 6, "depth": 2, "split": "rh_pct_mean", "split_condition": 56.4350014, "yes": 13, "no": 14, "missing": 14, "children": [{"nodeid": 13, "leaf": -0.150584072}, {"nodeid": 14, "leaf": 0.177897215}]}]}]}, {"nodeid": 0, "depth": 0, "split": "nh3_max", "split_condition": 0.0312439799, "yes": 1, "no": 2, "missing": 2, "children": [{"nodeid": 1, "depth": 1, "split": "rh_pct_mean", "split_condition": 78.6366653, "yes": 3, "no": 4, "missing": 4, "children": [{"nodeid": 3, "depth": 2, "split": "nh3_roc_mean", "split_condition": 2.93044031e-05, "yes": 7, "no": 8, "missing": 8, "children": [{"nodeid": 7, "depth": 3, "split": "hcho_acc_slope", "split_condition": -3.945608e-07, "yes": 13, "no": 14, "missing": 14, "children": [{"nodeid": 13, "leaf": -0.0166009068}, {"nodeid": 14, "leaf": -0.167309254}]}, {"nodeid": 8, "depth": 3, "split": "etoh_ppm_roll_std_60_std", "split_condition": 0.00485617295, "yes": 15, "no": 16, "missing": 16, "children": [{"nodeid": 15, "depth": 4, "split": "nh3_acc_slope", "split_condition": 1.11653534e-07, "yes": 19, "no": 20, "missing": 19, "children": [{"nodeid": 19, "leaf": -0.136807457}, {"nodeid": 20, "leaf": 0.0496039279}]}, {"nodeid": 16, "leaf": 0.158015087}]}]}, {"nodeid": 4, "leaf": 0.154880345}]}, {"nodeid": 2, "depth": 1, "split": "etoh_ppm_roll_std_60_mean", "split_condition": 0.000730931526, "yes": 5, "no": 6, "missing": 6, "children": [{"nodeid": 5, "depth": 2, "split": "hcho_mean", "split_condition": 0.0690328777, "yes": 9, "no": 10, "missing": 10, "children": [{"nodeid": 9, "depth": 3, "split": "nh3_roll_roc_60_max", "split_condition": 0.000562209403, "yes": 17, "no": 18, "missing": 18, "children": [{"nodeid": 17, "leaf": -0.155287027}, {"nodeid": 18, "leaf": 0.118227586}]}, {"nodeid": 10, "leaf": 0.171975493}]}, {"nodeid": 6, "depth": 2, "split": "etoh_ppm_slope", "split_condition": -0.00729835965, "yes": 11, "no": 12, "missing": 12, "children": [{"nodeid": 11, "leaf": -0.0326424055}, {"nodeid": 12, "leaf": 0.190681502}]}]}]}, {"nodeid": 0, "depth": 0, "split": "rh_pct_roll_mean_60_slope", "split_condition": 0.00164027046, "yes": 1, "no": 2, "missing": 2, "children": [{"nodeid": 1, "depth": 1, "split": "hcho_roll_mean_15_mean", "split_condition": 0.0229689144, "yes": 3, "no": 4, "missing": 4, "children": [{"nodeid": 3, "depth": 2, "split": "rh_pct_slope", "split_condition": 0.00248958054, "yes": 7, "no": 8, "missing": 8, "children": [{"nodeid": 7, "depth": 3, "split": "nh3_acc_slope", "split_condition": -1.37585928e-07, "yes": 13, "no": 14, "missing": 14, "children": [{"nodeid": 13, "leaf": 0.018264005}, {"nodeid": 14, "leaf": 0.177614808}]}, {"nodeid": 8, "leaf": -0.0372527838}]}, {"nodeid": 4, "leaf": -0.130509004}]}, {"nodeid": 2, "depth": 1, "split": "voc_mean", "split_condition": 0.00522651756, "yes": 5, "no": 6, "missing": 6, "children": [{"nodeid": 5, "depth": 2, "split": "hcho_max", "split_condition": 0.00438611023, "yes": 9, "no": 10, "missing": 10, "children": [{"nodeid": 9, "leaf": 0.161891565}, {"nodeid": 10, "leaf": -0.119756825}]}, {"nodeid": 6, "depth": 2, "split": "rh_pct_roc_mean", "split_condition": -0.0333333351, "yes": 11, "no": 12, "missing": 12, "children": [{"nodeid": 11, "leaf": 0.120930955}, {"nodeid": 12, "depth": 3, "split": "voc_roll_mean_30_slope", "split_condition": -0.000103699422, "yes": 15, "no": 16, "missing": 16, "children": [{"nodeid": 15, "depth": 4, "split": "hcho_roc_max", "split_condition": -1.24718663e-05, "yes": 17, "no": 18, "missing": 18, "children": [{"nodeid": 17, "leaf": -0.117941275}, {"nodeid": 18, "leaf": 0.118144944}]}, {"nodeid": 16, "leaf": -0.162120104}]}]}]}]}, {"nodeid": 0, "depth": 0, "split": "etoh_ppm_mean", "split_condition": 0.0304613058, "yes": 1, "no": 2, "missing": 2, "children": [{"nodeid": 1, "depth": 1, "split": "voc_roll_mean_15_max", "split_condition": 0.032068722, "yes": 3, "no": 4, "missing": 4, "children": [{"nodeid": 3, "depth": 2, "split": "rh_pct_roc_mean", "split_condition": 0.129999995, "yes": 7, "no": 8, "missing": 8, "children": [{"nodeid": 7, "leaf": -0.158932582}, {"nodeid": 8, "leaf": 0.107915334}]}, {"nodeid": 4, "depth": 2, "split": "nh3_roll_mean_15_std", "split_condition": 0.00603768043, "yes": 9, "no": 10, "missing": 10, "children": [{"nodeid": 9, "depth": 3, "split": "nh3_roll_mean_15_max", "split_condition": 0.0559026003, "yes": 15, "no": 16, "missing": 16, "children": [{"nodeid": 15, "depth": 4, "split": "etoh_ppm_roc_slope", "split_condition": 0.00012161379, "yes": 17, "no": 18, "missing": 18, "children": [{"nodeid": 17, "depth": 5, "split": "nh3_roll_roc_60_slope", "split_condition": -1.91589334e-06, "yes": 19, "no": 20, "missing": 20, "children": [{"nodeid": 19, "leaf": 0.0475212149}, {"nodeid": 20, "leaf": 0.177844927}]}, {"nodeid": 18, "leaf": -0.0115170758}]}, {"nodeid": 16, "leaf": -0.100685313}]}, {"nodeid": 10, "leaf": -0.132584125}]}]}, {"nodeid": 2, "depth": 1, "split": "h2s_ppm_roll_mean_60_mean", "split_condition": 0.50325197, "yes": 5, "no": 6, "missing": 6, "children": [{"nodeid": 5, "depth": 2, "split": "nh3_roll_roc_15_max", "split_condition": -4.14863848e-07, "yes": 11, "no": 12, "missing": 12, "children": [{"nodeid": 11, "leaf": 0.120616809}, {"nodeid": 12, "leaf": -0.161175519}]}, {"nodeid": 6, "depth": 2, "split": "rh_pct_mean", "split_condition": 56.4350014, "yes": 13, "no": 14, "missing": 14, "children": [{"nodeid": 13, "leaf": -0.141943529}, {"nodeid": 14, "leaf": 0.162967294}]}]}]}, {"nodeid": 0, "depth": 0, "split": "nh3_max", "split_condition": 0.0292967558, "yes": 1, "no": 2, "missing": 2, "children": [{"nodeid": 1, "depth": 1, "split": "rh_pct_mean", "split_condition": 78.6366653, "yes": 3, "no": 4, "missing": 4, "children": [{"nodeid": 3, "depth": 2, "split": "nh3_roc_mean", "split_condition": 2.93044031e-05, "yes": 7, "no": 8, "missing": 8, "children": [{"nodeid": 7, "depth": 3, "split": "hcho_acc_slope", "split_condition": -3.945608e-07, "yes": 13, "no": 14, "missing": 14, "children": [{"nodeid": 13, "leaf": -0.0131643852}, {"nodeid": 14, "leaf": -0.162003368}]}, {"nodeid": 8, "depth": 3, "split": "etoh_ppm_roll_std_60_max", "split_condition": 0.0251367707, "yes": 15, "no": 16, "missing": 16, "children": [{"nodeid": 15, "depth": 4, "split": "nh3_acc_slope", "split_condition": 1.11653534e-07, "yes": 19, "no": 20, "missing": 19, "children": [{"nodeid": 19, "leaf": -0.127318591}, {"nodeid": 20, "leaf": 0.061770305}]}, {"nodeid": 16, "leaf": 0.14467904}]}]}, {"nodeid": 4, "leaf": 0.133781508}]}, {"nodeid": 2, "depth": 1, "split": "etoh_ppm_roll_std_60_mean", "split_condition": 0.000963800878, "yes": 5, "no": 6, "missing": 6, "children": [{"nodeid": 5, "depth": 2, "split": "hcho_mean", "split_condition": 0.0690328777, "yes": 9, "no": 10, "missing": 10, "children": [{"nodeid": 9, "depth": 3, "split": "voc_acc_max", "split_condition": 0.000119631528, "yes": 17, "no": 18, "missing": 18, "children": [{"nodeid": 17, "leaf": -0.146838471}, {"nodeid": 18, "leaf": 0.0883433223}]}, {"nodeid": 10, "leaf": 0.156282738}]}, {"nodeid": 6, "depth": 2, "split": "etoh_ppm_mean", "split_condition": 7.04861689, "yes": 11, "no": 12, "missing": 12, "children": [{"nodeid": 11, "leaf": 0.178213924}, {"nodeid": 12, "leaf": -0.00988518447}]}]}]}, {"nodeid": 0, "depth": 0, "split": "rh_pct_roll_mean_60_slope", "split_condition": 0.00164027046, "yes": 1, "no": 2, "missing": 2, "children": [{"nodeid": 1, "depth": 1, "split": "hcho_roll_mean_15_mean", "split_condition": 0.0229689144, "yes": 3, "no": 4, "missing": 4, "children": [{"nodeid": 3, "depth": 2, "split": "rh_pct_mean", "split_condition": 67.9766693, "yes": 7, "no": 8, "missing": 8, "children": [{"nodeid": 7, "depth": 3, "split": "hcho_roc_mean", "split_condition": 1.80689185e-05, "yes": 13, "no": 14, "missing": 14, "children": [{"nodeid": 13, "leaf": 0.168778032}, {"nodeid": 14, "leaf": 0.0197169408}]}, {"nodeid": 8, "leaf": -0.0153765073}]}, {"nodeid": 4, "leaf": -0.120948724}]}, {"nodeid": 2, "depth": 1, "split": "voc_mean", "split_condition": 0.00522651756, "yes": 5, "no": 6, "missing": 6, "children": [{"nodeid": 5, "depth": 2, "split": "hcho_max", "split_condition": 0.00438611023, "yes": 9, "no": 10, "missing": 10, "children": [{"nodeid": 9, "leaf": 0.14984934}, {"nodeid": 10, "leaf": -0.110334575}]}, {"nodeid": 6, "depth": 2, "split": "rh_pct_roc_mean", "split_condition": -0.0333333351, "yes": 11, "no": 12, "missing": 12, "children": [{"nodeid": 11, "leaf": 0.106885552}, {"nodeid": 12, "depth": 3, "split": "voc_roll_mean_30_slope", "split_condition": -0.000103699422, "yes": 15, "no": 16, "missing": 16, "children": [{"nodeid": 15, "depth": 4, "split": "nh3_roll_mean_15_max", "split_condition": 0.0615173653, "yes": 17, "no": 18, "missing": 18, "children": [{"nodeid": 17, "leaf": 0.105518341}, {"nodeid": 18, "leaf": -0.107512712}]}, {"nodeid": 16, "leaf": -0.15810433}]}]}]}]}, {"nodeid": 0, "depth": 0, "split": "etoh_ppm_roll_mean_15_max", "split_condition": 0.566842079, "yes": 1, "no": 2, "missing": 2, "children": [{"nodeid": 1, "depth": 1, "split": "voc_roll_mean_15_max", "split_condition": 0.0440881811, "yes": 3, "no": 4, "missing": 4, "children": [{"nodeid": 3, "depth": 2, "split": "rh_pct_roc_mean", "split_condition": 0.129999995, "yes": 5, "no": 6, "missing": 6, "children": [{"nodeid": 5, "leaf": -0.155859634}, {"nodeid": 6, "leaf": 0.0951670036}]}, {"nodeid": 4, "depth": 2, "split": "nh3_max", "split_condition": 0.0561059155, "yes": 7, "no": 8, "missing": 8, "children": [{"nodeid": 7, "depth": 3, "split": "rh_pct_max", "split_condition": 77.9000015, "yes": 9, "no": 10, "missing": 10, "children": [{"nodeid": 9, "depth": 4, "split": "nh3_roll_mean_60_std", "split_condition": 0.00250745052, "yes": 11, "no": 12, "missing": 12, "children": [{"nodeid": 11, "depth": 5, "split": "rh_pct_max", "split_condition": 41.5999985, "yes": 13, "no": 14, "missing": 14, "children": [{"nodeid": 13, "leaf": -0.00365130417}, {"nodeid": 14, "leaf": 0.167720318}]}, {"nodeid": 12, "depth": 5, "split": "nh3_acc_mean", "split_condition": -3.93786013e-06, "yes": 15, "no": 16, "missing": 16, "children": [{"nodeid": 15, "leaf": 0.120268069}, {"nodeid": 16, "leaf": -0.120620713}]}]}, {"nodeid": 10, "leaf": -0.107715249}]}, {"nodeid": 8, "leaf": -0.130073443}]}]}, {"nodeid": 2, "leaf": -0.156278342}]}, {"nodeid": 0, "depth": 0, "split": "nh3_max", "split_condition": 0.0292967558, "yes": 1, "no": 2, "missing": 2, "children": [{"nodeid": 1, "depth": 1, "split": "rh_pct_mean", "split_condition": 78.6366653, "yes": 3, "no": 4, "missing": 4, "children": [{"nodeid": 3, "depth": 2, "split": "nh3_roc_mean", "split_condition": 2.93044031e-05, "yes": 7, "no": 8, "missing": 8, "children": [{"nodeid": 7, "depth": 3, "split": "hcho_acc_slope", "split_condition": -3.945608e-07, "yes": 13, "no": 14, "missing": 14, "children": [{"nodeid": 13, "leaf": -0.0117674898}, {"nodeid": 14, "leaf": -0.157989427}]}, {"nodeid": 8, "depth": 3, "split": "voc_roll_std_30_max", "split_condition": 0.00694248918, "yes": 15, "no": 16, "missing": 16, "children": [{"nodeid": 15, "depth": 4, "split": "etoh_ppm_acc_max", "split_condition": 0, "yes": 19, "no": 20, "missing": 20, "children": [{"nodeid": 19, "leaf": -0.0386302434}, {"nodeid": 20, "leaf": 0.127986282}]}, {"nodeid": 16, "leaf": -0.105571426}]}]}, {"nodeid": 4, "leaf": 0.119953513}]}, {"nodeid": 2, "depth": 1, "split": "etoh_ppm_roll_std_60_mean", "split_condition": 0.000963800878, "yes": 5, "no": 6, "missing": 6, "children": [{"nodeid": 5, "depth": 2, "split": "hcho_mean", "split_condition": 0.0690328777, "yes": 9, "no": 10, "missing": 10, "children": [{"nodeid": 9, "depth": 3, "split": "voc_acc_max", "split_condition": 0.000119631528, "yes": 17, "no": 18, "missing": 18, "children": [{"nodeid": 17, "leaf": -0.138595983}, {"nodeid": 18, "leaf": 0.0768926218}]}, {"nodeid": 10, "leaf": 0.143938944}]}, {"nodeid": 6, "depth": 2, "split": "rh_pct_acc_slope", "split_condition": -0.000230619611, "yes": 11, "no": 12, "missing": 11, "children": [{"nodeid": 11, "leaf": -0.0168048646}, {"nodeid": 12, "leaf": 0.169328824}]}]}]}, {"nodeid": 0, "depth": 0, "split": "rh_pct_roll_mean_60_slope", "split_condition": 0.00164027046, "yes": 1, "no": 2, "missing": 2, "children": [{"nodeid": 1, "depth": 1, "split": "hcho_roll_mean_15_mean", "split_condition": 0.0229689144, "yes": 3, "no": 4, "missing": 4, "children": [{"nodeid": 3, "depth": 2, "split": "rh_pct_mean", "split_condition": 67.9766693, "yes": 7, "no": 8, "missing": 8, "children": [{"nodeid": 7, "depth": 3, "split": "etoh_ppm_acc_max", "split_condition": 0.00377004105, "yes": 13, "no": 14, "missing": 14, "children": [{"nodeid": 13, "leaf": 0.162575394}, {"nodeid": 14, "leaf": 0.0166018866}]}, {"nodeid": 8, "leaf": -0.0131573724}]}, {"nodeid": 4, "leaf": -0.112116858}]}, {"nodeid": 2, "depth": 1, "split": "voc_roll_roc_30_mean", "split_condition": 1.18523039e-05, "yes": 5, "no": 6, "missing": 6, "children": [{"nodeid": 5, "depth": 2, "split": "nh3_roll_roc_60_mean", "split_condition": 2.64105529e-05, "yes": 9, "no": 10, "missing": 10, "children": [{"nodeid": 9, "leaf": 0.136948809}, {"nodeid": 10, "leaf": -0.0586153306}]}, {"nodeid": 6, "depth": 2, "split": "voc_roc_mean", "split_condition": -9.08560396e-05, "yes": 11, "no": 12, "missing": 12, "children": [{"nodeid": 11, "depth": 3, "split": "h2s_ppm_mean", "split_condition": 0.150112346, "yes": 15, "no": 16, "missing": 16, "children": [{"nodeid": 15, "leaf": 0.135797963}, {"nodeid": 16, "leaf": -0.106103972}]}, {"nodeid": 12, "depth": 3, "split": "voc_max", "split_condition": 0.00752411736, "yes": 17, "no": 18, "missing": 18, "children": [{"nodeid": 17, "leaf": 0.00534641277}, {"nodeid": 18, "leaf": -0.154948309}]}]}]}]}, {"nodeid": 0, "depth": 0, "split": "etoh_ppm_roll_mean_15_max", "split_condition": 0.566842079, "yes": 1, "no": 2, "missing": 2, "children": [{"nodeid": 1, "depth": 1, "split": "voc_roll_mean_15_max", "split_condition": 0.0440881811, "yes": 3, "no": 4, "missing": 4, "children": [{"nodeid": 3, "depth": 2, "split": "rh_pct_roc_max", "split_condition": 1.89999998, "yes": 5, "no": 6, "missing": 6, "children": [{"nodeid": 5, "leaf": -0.151974916}, {"nodeid": 6, "leaf": 0.0663634539}]}, {"nodeid": 4, "depth": 2, "split": "nh3_max", "split_condition": 0.0561059155, "yes": 7, "no": 8, "missing": 8, "children": [{"nodeid": 7, "depth": 3, "split": "rh_pct_max", "split_condition": 77.9000015, "yes": 9, "no": 10, "missing": 10, "children": [{"nodeid": 9, "depth": 4, "split": "nh3_roll_mean_60_std", "split_condition": 0.00250745052, "yes": 11, "no": 12, "missing": 12, "children": [{"nodeid": 11, "depth": 5, "split": "etoh_ppm_roll_roc_30_slope", "split_condition": 3.45345543e-05, "yes": 13, "no": 14, "missing": 14, "children": [{"nodeid": 13, "leaf": 0.16120705}, {"nodeid": 14, "leaf": -0.000549034507}]}, {"nodeid": 12, "depth": 5, "split": "nh3_acc_mean", "split_condition": -3.93786013e-06, "yes": 15, "no": 16, "missing": 16, "children": [{"nodeid": 15, "leaf": 0.107502028}, {"nodeid": 16, "leaf": -0.111456119}]}]}, {"nodeid": 10, "leaf": -0.0990578011}]}, {"nodeid": 8, "leaf": -0.121770658}]}]}, {"nodeid": 2, "leaf": -0.152636588}]}, {"nodeid": 0, "depth": 0, "split": "nh3_max", "split_condition": 0.0292967558, "yes": 1, "no": 2, "missing": 2, "children": [{"nodeid": 1, "depth": 1, "split": "rh_pct_mean", "split_condition": 78.6366653, "yes": 3, "no": 4, "missing": 4, "children": [{"nodeid": 3, "depth": 2, "split": "nh3_roc_mean", "split_condition": 5.24579991e-05, "yes": 7, "no": 8, "missing": 8, "children": [{"nodeid": 7, "depth": 3, "split": "h2s_ppm_roll_roc_30_std", "split_condition": 0.000482643722, "yes": 13, "no": 14, "missing": 14, "children": [{"nodeid": 13, "leaf": -0.154885098}, {"nodeid": 14, "leaf": -0.00684617274}]}, {"nodeid": 8, "depth": 3, "split": "voc_roll_std_30_mean", "split_condition": 0.00443744846, "yes": 15, "no": 16, "missing": 16, "children": [{"nodeid": 15, "depth": 4, "split": "rh_pct_roc_mean", "split_condition": 0.0133578964, "yes": 19, "no": 20, "missing": 20, "children": [{"nodeid": 19, "leaf": 0.0248932485}, {"nodeid": 20, "leaf": 0.12057481}]}, {"nodeid": 16, "leaf": -0.0924528092}]}]}, {"nodeid": 4, "leaf": 0.108876877}]}, {"nodeid": 2, "depth": 1, "split": "etoh_ppm_roll_std_60_mean", "split_condition": 0.000963800878, "yes": 5, "no": 6, "missing": 6, "children": [{"nodeid": 5, "depth": 2, "split": "hcho_mean", "split_condition": 0.0690328777, "yes": 9, "no": 10, "missing": 10, "children": [{"nodeid": 9, "depth": 3, "split": "voc_acc_max", "split_condition": 0.000119631528, "yes": 17, "no": 18, "missing": 18, "children": [{"nodeid": 17, "leaf": -0.130342096}, {"nodeid": 18, "leaf": 0.0672477782}]}, {"nodeid": 10, "leaf": 0.132988676}]}, {"nodeid": 6, "depth": 2, "split": "etoh_ppm_roc_slope", "split_condition": -0.000207190722, "yes": 11, "no": 12, "missing": 11, "children": [{"nodeid": 11, "leaf": -0.00518190395}, {"nodeid": 12, "leaf": 0.162960976}]}]}]}, {"nodeid": 0, "depth": 0, "split": "rh_pct_roll_mean_60_slope", "split_condition": 0.00164027046, "yes": 1, "no": 2, "missing": 2, "children": [{"nodeid": 1, "depth": 1, "split": "hcho_roll_mean_15_mean", "split_condition": 0.0229689144, "yes": 3, "no": 4, "missing": 4, "children": [{"nodeid": 3, "depth": 2, "split": "rh_pct_mean", "split_condition": 67.9266663, "yes": 7, "no": 8, "missing": 8, "children": [{"nodeid": 7, "depth": 3, "split": "hcho_roll_roc_15_slope", "split_condition": 6.95827396e-07, "yes": 13, "no": 14, "missing": 13, "children": [{"nodeid": 13, "leaf": 0.157631338}, {"nodeid": 14, "leaf": 0.0151784495}]}, {"nodeid": 8, "leaf": -0.000530273828}]}, {"nodeid": 4, "leaf": -0.102812707}]}, {"nodeid": 2, "depth": 1, "split": "voc_roll_mean_15_max", "split_condition": 0.0056783976, "yes": 5, "no": 6, "missing": 6, "children": [{"nodeid": 5, "depth": 2, "split": "nh3_roll_mean_15_max", "split_condition": 0.00653090794, "yes": 9, "no": 10, "missing": 10, "children": [{"nodeid": 9, "leaf": 0.12855573}, {"nodeid": 10, "leaf": -0.0801499858}]}, {"nodeid": 6, "depth": 2, "split": "voc_roc_mean", "split_condition": -9.08560396e-05, "yes": 11, "no": 12, "missing": 12, "children": [{"nodeid": 11, "depth": 3, "split": "h2s_ppm_mean", "split_condition": 0.150112346, "yes": 15, "no": 16, "missing": 16, "children": [{"nodeid": 15, "leaf": 0.122585572}, {"nodeid": 16, "leaf": -0.0964014307}]}, {"nodeid": 12, "depth": 3, "split": "rh_pct_roc_max", "split_condition": 0.0587468185, "yes": 17, "no": 18, "missing": 18, "children": [{"nodeid": 17, "leaf": -0.0290846042}, {"nodeid": 18, "leaf": -0.152293816}]}]}]}]}, {"nodeid": 0, "depth": 0, "split": "etoh_ppm_mean", "split_condition": 0.0304613058, "yes": 1, "no": 2, "missing": 2, "children": [{"nodeid": 1, "depth": 1, "split": "voc_max", "split_condition": 0.025064772, "yes": 3, "no": 4, "missing": 4, "children": [{"nodeid": 3, "depth": 2, "split": "rh_pct_acc_mean", "split_condition": 2.36847591e-16, "yes": 7, "no": 8, "missing": 8, "children": [{"nodeid": 7, "leaf": -0.145047173}, {"nodeid": 8, "leaf": 0.00713972561}]}, {"nodeid": 4, "depth": 2, "split": "nh3_roll_roc_60_max", "split_condition": 0.000562209403, "yes": 9, "no": 10, "missing": 10, "children": [{"nodeid": 9, "depth": 3, "split": "nh3_max", "split_condition": 0.0551239103, "yes": 15, "no": 16, "missing": 16, "children": [{"nodeid": 15, "depth": 4, "split": "rh_pct_acc_slope", "split_condition": 0.000161155884, "yes": 17, "no": 18, "missing": 18, "children": [{"nodeid": 17, "depth": 5, "split": "voc_roll_roc_60_slope", "split_condition": -7.05210914e-06, "yes": 19, "no": 20, "missing": 20, "children": [{"nodeid": 19, "leaf": 0.0414151363}, {"nodeid": 20, "leaf": 0.156626329}]}, {"nodeid": 18, "leaf": -0.00334287225}]}, {"nodeid": 16, "leaf": -0.0462137237}]}, {"nodeid": 10, "leaf": -0.108601362}]}]}, {"nodeid": 2, "depth": 1, "split": "h2s_ppm_roll_mean_60_mean", "split_condition": 0.50325197, "yes": 5, "no": 6, "missing": 6, "children": [{"nodeid": 5, "depth": 2, "split": "rh_pct_roc_mean", "split_condition": 0.0294615198, "yes": 11, "no": 12, "missing": 12, "children": [{"nodeid": 11, "leaf": -0.150452659}, {"nodeid": 12, "leaf": 0.0290367436}]}, {"nodeid": 6, "depth": 2, "split": "rh_pct_mean", "split_condition": 56.4350014, "yes": 13, "no": 14, "missing": 14, "children": [{"nodeid": 13, "leaf": -0.116555445}, {"nodeid": 14, "leaf": 0.13114427}]}]}]}, {"nodeid": 0, "depth": 0, "split": "nh3_max", "split_condition": 0.0292967558, "yes": 1, "no": 2, "missing": 2, "children": [{"nodeid": 1, "depth": 1, "split": "nh3_roc_mean", "split_condition": 2.93044031e-05, "yes": 3, "no": 4, "missing": 4, "children": [{"nodeid": 3, "depth": 2, "split": "rh_pct_mean", "split_condition": 78.6366653, "yes": 7, "no": 8, "missing": 8, "children": [{"nodeid": 7, "depth": 3, "split": "h2s_ppm_roc_mean", "split_condition": 0.00112975074, "yes": 15, "no": 16, "missing": 16, "children": [{"nodeid": 15, "leaf": -0.152143151}, {"nodeid": 16, "leaf": -0.018207917}]}, {"nodeid": 8, "leaf": 0.0989632159}]}, {"nodeid": 4, "depth": 2, "split": "voc_roll_std_30_max", "split_condition": 0.00694248918, "yes": 9, "no": 10, "missing": 10, "children": [{"nodeid": 9, "depth": 3, "split": "rh_pct_roll_std_15_mean", "split_condition": 0.110867113, "yes": 17, "no": 18, "missing": 18, "children": [{"nodeid": 17, "leaf": -0.00532710878}, {"nodeid": 18, "leaf": 0.115712769}]}, {"nodeid": 10, "leaf": -0.0884300172}]}]}, {"nodeid": 2, "depth": 1, "split": "nh3_acc_std", "split_condition": 2.3400491e-05, "yes": 5, "no": 6, "missing": 6, "children": [{"nodeid": 5, "depth": 2, "split": "voc_roc_mean", "split_condition": 0.000119288066, "yes": 11, "no": 12, "missing": 12, "children": [{"nodeid": 11, "leaf": 0.0364945233}, {"nodeid": 12, "leaf": -0.102683581}]}, {"nodeid": 6, "depth": 2, "split": "hcho_mean", "split_condition": 0.0354579836, "yes": 13, "no": 14, "missing": 14, "children": [{"nodeid": 13, "leaf": -0.0354580767}, {"nodeid": 14, "depth": 3, "split": "nh3_roll_std_60_mean", "split_condition": 9.94566581e-05, "yes": 19, "no": 20, "missing": 20, "children": [{"nodeid": 19, "leaf": -0.021709092}, {"nodeid": 20, "leaf": 0.155682817}]}]}]}]}, {"nodeid": 0, "depth": 0, "split": "voc_roll_mean_15_max", "split_condition": 0.0269548763, "yes": 1, "no": 2, "missing": 2, "children": [{"nodeid": 1, "depth": 1, "split": "hcho_roll_std_15_max", "split_condition": 0.000232174745, "yes": 3, "no": 4, "missing": 4, "children": [{"nodeid": 3, "leaf": 0.15419215}, {"nodeid": 4, "depth": 2, "split": "rh_pct_mean", "split_condition": 39.4216652, "yes": 7, "no": 8, "missing": 8, "children": [{"nodeid": 7, "leaf": 0.0380105227}, {"nodeid": 8, "leaf": -0.114037633}]}]}, {"nodeid": 2, "depth": 1, "split": "voc_roc_mean", "split_condition": -9.62246195e-05, "yes": 5, "no": 6, "missing": 6, "children": [{"nodeid": 5, "depth": 2, "split": "h2s_ppm_mean", "split_condition": 0.150112346, "yes": 9, "no": 10, "missing": 10, "children": [{"nodeid": 9, "leaf": 0.132773042}, {"nodeid": 10, "leaf": -0.0837011412}]}, {"nodeid": 6, "depth": 2, "split": "rh_pct_roc_max", "split_condition": 0.0230670199, "yes": 11, "no": 12, "missing": 12, "children": [{"nodeid": 11, "leaf": 0.0273761861}, {"nodeid": 12, "leaf": -0.150031373}]}]}]}, {"nodeid": 0, "depth": 0, "split": "etoh_ppm_roll_mean_15_max", "split_condition": 0.566842079, "yes": 1, "no": 2, "missing": 2, "children": [{"nodeid": 1, "depth": 1, "split": "voc_roll_mean_15_max", "split_condition": 0.0440881811, "yes": 3, "no": 4, "missing": 4, "children": [{"nodeid": 3, "depth": 2, "split": "rh_pct_roc_std", "split_condition": 0.121780768, "yes": 5, "no": 6, "missing": 6, "children": [{"nodeid": 5, "leaf": -0.145048797}, {"nodeid": 6, "leaf": 0.02994808}]}, {"nodeid": 4, "depth": 2, "split": "nh3_max", "split_condition": 0.0561059155, "yes": 7, "no": 8, "missing": 8, "children": [{"nodeid": 7, "depth": 3, "split": "rh_pct_max", "split_condition": 77.9000015, "yes": 9, "no": 10, "missing": 10, "children": [{"nodeid": 9, "depth": 4, "split": "nh3_roll_roc_60_max", "split_condition": 0.000142838995, "yes": 11, "no": 12, "missing": 12, "children": [{"nodeid": 11, "leaf": 0.152513593}, {"nodeid": 12, "depth": 5, "split": "rh_pct_roll_mean_60_max", "split_condition": 56.668335, "yes": 13, "no": 14, "missing": 14, "children": [{"nodeid": 13, "leaf": 0.0765865892}, {"nodeid": 14, "leaf": -0.096905455}]}]}, {"nodeid": 10, "leaf": -0.0806027055}]}, {"nodeid": 8, "leaf": -0.105364576}]}]}, {"nodeid": 2, "leaf": -0.146337867}]}, {"nodeid": 0, "depth": 0, "split": "nh3_max", "split_condition": 0.0292967558, "yes": 1, "no": 2, "missing": 2, "children": [{"nodeid": 1, "depth": 1, "split": "nh3_roc_mean", "split_condition": 2.93044031e-05, "yes": 3, "no": 4, "missing": 4, "children": [{"nodeid": 3, "depth": 2, "split": "rh_pct_mean", "split_condition": 78.6366653, "yes": 7, "no": 8, "missing": 8, "children": [{"nodeid": 7, "depth": 3, "split": "nh3_roll_roc_60_slope", "split_condition": -4.19797374e-07, "yes": 15, "no": 16, "missing": 16, "children": [{"nodeid": 15, "leaf": -0.0234960336}, {"nodeid": 16, "leaf": -0.149710789}]}, {"nodeid": 8, "leaf": 0.0886967331}]}, {"nodeid": 4, "depth": 2, "split": "etoh_ppm_roll_std_60_max", "split_condition": 0.0251367707, "yes": 9, "no": 10, "missing": 10, "children": [{"nodeid": 9, "depth": 3, "split": "nh3_acc_slope", "split_condition": 1.11653534e-07, "yes": 17, "no": 18, "missing": 17, "children": [{"nodeid": 17, "leaf": -0.0941459984}, {"nodeid": 18, "leaf": 0.0426051617}]}, {"nodeid": 10, "leaf": 0.106569894}]}]}, {"nodeid": 2, "depth": 1, "split": "etoh_ppm_roll_std_60_mean", "split_condition": 0.000963800878, "yes": 5, "no": 6, "missing": 6, "children": [{"nodeid": 5, "depth": 2, "split": "hcho_mean", "split_condition": 0.0690328777, "yes": 11, "no": 12, "missing": 12, "children": [{"nodeid": 11, "depth": 3, "split": "voc_acc_std", "split_condition": 4.5987319e-05, "yes": 19, "no": 20, "missing": 20, "children": [{"nodeid": 19, "leaf": -0.116439678}, {"nodeid": 20, "leaf": 0.033846315}]}, {"nodeid": 12, "leaf": 0.113485754}]}, {"nodeid": 6, "depth": 2, "split": "etoh_ppm_slope", "split_condition": -0.00586106721, "yes": 13, "no": 14, "missing": 14, "children": [{"nodeid": 13, "leaf": 0.00456727715}, {"nodeid": 14, "leaf": 0.15418084}]}]}]}, {"nodeid": 0, "depth": 0, "split": "rh_pct_roll_mean_60_slope", "split_condition": 0.00164027046, "yes": 1, "no": 2, "missing": 2, "children": [{"nodeid": 1, "depth": 1, "split": "hcho_roll_mean_15_mean", "split_condition": 0.0229689144, "yes": 3, "no": 4, "missing": 4, "children": [{"nodeid": 3, "depth": 2, "split": "hcho_roll_std_30_slope", "split_condition": 1.32969069e-06, "yes": 7, "no": 8, "missing": 8, "children": [{"nodeid": 7, "leaf": 0.149055958}, {"nodeid": 8, "leaf": 0.0294707343}]}, {"nodeid": 4, "leaf": -0.0846173689}]}, {"nodeid": 2, "depth": 1, "split": "voc_roll_roc_30_mean", "split_condition": 1.18523039e-05, "yes": 5, "no": 6, "missing": 6, "children": [{"nodeid": 5, "depth": 2, "split": "nh3_roc_mean", "split_condition": -6.60456317e-06, "yes": 9, "no": 10, "missing": 10, "children": [{"nodeid": 9, "leaf": 0.00111514132}, {"nodeid": 10, "leaf": 0.101788685}]}, {"nodeid": 6, "depth": 2, "split": "voc_roc_mean", "split_condition": -9.08560396e-05, "yes": 11, "no": 12, "missing": 12, "children": [{"nodeid": 11, "depth": 3, "split": "h2s_ppm_mean", "split_condition": 0.150112346, "yes": 13, "no": 14, "missing": 14, "children": [{"nodeid": 13, "leaf": 0.100510515}, {"nodeid": 14, "leaf": -0.0787268355}]}, {"nodeid": 12, "depth": 3, "split": "voc_mean", "split_condition": 0.0130782044, "yes": 15, "no": 16, "missing": 16, "children": [{"nodeid": 15, "leaf": -0.0350333489}, {"nodeid": 16, "leaf": -0.14751856}]}]}]}]}, {"nodeid": 0, "depth": 0, "split": "etoh_ppm_mean", "split_condition": 0.0304613058, "yes": 1, "no": 2, "missing": 2, "children": [{"nodeid": 1, "depth": 1, "split": "voc_roll_mean_15_max", "split_condition": 0.032068722, "yes": 3, "no": 4, "missing": 4, "children": [{"nodeid": 3, "depth": 2, "split": "hcho_acc_std", "split_condition": 5.12006336e-05, "yes": 7, "no": 8, "missing": 8, "children": [{"nodeid": 7, "leaf": -0.136293441}, {"nodeid": 8, "leaf": 0.0170968063}]}, {"nodeid": 4, "depth": 2, "split": "nh3_roll_mean_15_std", "split_condition": 0.00603768043, "yes": 9, "no": 10, "missing": 10, "children": [{"nodeid": 9, "depth": 3, "split": "nh3_max", "split_condition": 0.0545227937, "yes": 15, "no": 16, "missing": 16, "children": [{"nodeid": 15, "depth": 4, "split": "rh_pct_acc_slope", "split_condition": 0.000161155884, "yes": 17, "no": 18, "missing": 18, "children": [{"nodeid": 17, "depth": 5, "split": "voc_roll_std_15_slope", "split_condition": -3.96567339e-05, "yes": 19, "no": 20, "missing": 20, "children": [{"nodeid": 19, "leaf": 0.0278037265}, {"nodeid": 20, "leaf": 0.150322855}]}, {"nodeid": 18, "leaf": 0.00465330714}]}, {"nodeid": 16, "leaf": -0.0118059786}]}, {"nodeid": 10, "leaf": -0.0928504691}]}]}, {"nodeid": 2, "depth": 1, "split": "h2s_ppm_roll_mean_60_mean", "split_condition": 0.50325197, "yes": 5, "no": 6, "missing": 6, "children": [{"nodeid": 5, "depth": 2, "split": "rh_pct_roc_mean", "split_condition": 0.0254279301, "yes": 11, "no": 12, "missing": 12, "children": [{"nodeid": 11, "leaf": -0.144749776}, {"nodeid": 12, "leaf": 0.00743766036}]}, {"nodeid": 6, "depth": 2, "split": "rh_pct_mean", "split_condition": 56.4350014, "yes": 13, "no": 14, "missing": 14, "children": [{"nodeid": 13, "leaf": -0.0982565284}, {"nodeid": 14, "leaf": 0.112386562}]}]}]}, {"nodeid": 0, "depth": 0, "split": "nh3_max", "split_condition": 0.0292967558, "yes": 1, "no": 2, "missing": 2, "children": [{"nodeid": 1, "depth": 1, "split": "nh3_roll_std_60_std", "split_condition": 0.000214799991, "yes": 3, "no": 4, "missing": 4, "children": [{"nodeid": 3, "depth": 2, "split": "rh_pct_mean", "split_condition": 78.6366653, "yes": 7, "no": 8, "missing": 8, "children": [{"nodeid": 7, "leaf": -0.145212397}, {"nodeid": 8, "leaf": 0.0804705918}]}, {"nodeid": 4, "depth": 2, "split": "voc_roll_std_60_max", "split_condition": 0.0122554218, "yes": 9, "no": 10, "missing": 10, "children": [{"nodeid": 9, "depth": 3, "split": "rh_pct_roc_mean", "split_condition": 0.0133578964, "yes": 15, "no": 16, "missing": 16, "children": [{"nodeid": 15, "leaf": 0.0039084102}, {"nodeid": 16, "leaf": 0.104958601}]}, {"nodeid": 10, "leaf": -0.0869694874}]}]}, {"nodeid": 2, "depth": 1, "split": "etoh_ppm_roll_std_60_mean", "split_condition": 0.000963800878, "yes": 5, "no": 6, "missing": 6, "children": [{"nodeid": 5, "depth": 2, "split": "hcho_mean", "split_condition": 0.0690328777, "yes": 11, "no": 12, "missing": 12, "children": [{"nodeid": 11, "depth": 3, "split": "voc_acc_std", "split_condition": 4.56977432e-05, "yes": 17, "no": 18, "missing": 18, "children": [{"nodeid": 17, "leaf": -0.107546799}, {"nodeid": 18, "leaf": 0.0252524223}]}, {"nodeid": 12, "leaf": 0.105041757}]}, {"nodeid": 6, "depth": 2, "split": "voc_roll_roc_60_mean", "split_condition": 0.00124383217, "yes": 13, "no": 14, "missing": 14, "children": [{"nodeid": 13, "leaf": 0.150625169}, {"nodeid": 14, "leaf": 0.00912161916}]}]}]}, {"nodeid": 0, "depth": 0, "split": "hcho_roll_mean_15_mean", "split_condition": 0.0229689144, "yes": 1, "no": 2, "missing": 2, "children": [{"nodeid": 1, "depth": 1, "split": "rh_pct_slope", "split_condition": 0.00370658515, "yes": 3, "no": 4, "missing": 4, "children": [{"nodeid": 3, "depth": 2, "split": "hcho_roll_std_30_slope", "split_condition": 3.60418244e-06, "yes": 7, "no": 8, "missing": 8, "children": [{"nodeid": 7, "depth": 3, "split": "rh_pct_mean", "split_condition": 66.4794846, "yes": 11, "no": 12, "missing": 12, "children": [{"nodeid": 11, "leaf": 0.147564277}, {"nodeid": 12, "leaf": 0.033559978}]}, {"nodeid": 8, "leaf": 0.000180326198}]}, {"nodeid": 4, "depth": 2, "split": "etoh_ppm_roll_mean_60_mean", "split_condition": 0.0450610407, "yes": 9, "no": 10, "missing": 10, "children": [{"nodeid": 9, "depth": 3, "split": "voc_mean", "split_condition": 0.0243330766, "yes": 13, "no": 14, "missing": 14, "children": [{"nodeid": 13, "leaf": 0.0117161591}, {"nodeid": 14, "leaf": -0.111871824}]}, {"nodeid": 10, "leaf": 0.0910907984}]}]}, {"nodeid": 2, "depth": 1, "split": "rh_pct_roc_max", "split_condition": 0.0671757385, "yes": 5, "no": 6, "missing": 6, "children": [{"nodeid": 5, "leaf": -0.0357058309}, {"nodeid": 6, "leaf": -0.144586533}]}]}, {"nodeid": 0, "depth": 0, "split": "etoh_ppm_roll_mean_15_max", "split_condition": 0.0710508376, "yes": 1, "no": 2, "missing": 2, "children": [{"nodeid": 1, "depth": 1, "split": "voc_mean", "split_condition": 0.0304801855, "yes": 3, "no": 4, "missing": 4, "children": [{"nodeid": 3, "depth": 2, "split": "hcho_acc_std", "split_condition": 0.000108421722, "yes": 7, "no": 8, "missing": 8, "children": [{"nodeid": 7, "leaf": -0.133065656}, {"nodeid": 8, "leaf": 0.0540319085}]}, {"nodeid": 4, "depth": 2, "split": "nh3_max", "split_condition": 0.0561059155, "yes": 9, "no": 10, "missing": 10, "children": [{"nodeid": 9, "depth": 3, "split": "voc_roll_std_30_max", "split_condition": 0.0126962531, "yes": 15, "no": 16, "missing": 16, "children": [{"nodeid": 15, "depth": 4, "split": "hcho_std", "split_condition": 0.00207103905, "yes": 17, "no": 18, "missing": 18, "children": [{"nodeid": 17, "leaf": 0.147334635}, {"nodeid": 18, "leaf": 0.0327791832}]}, {"nodeid": 16, "leaf": -0.0215152465}]}, {"nodeid": 10, "leaf": -0.0784337223}]}]}, {"nodeid": 2, "depth": 1, "split": "h2s_ppm_mean", "split_condition": 0.504613996, "yes": 5, "no": 6, "missing": 6, "children": [{"nodeid": 5, "depth": 2, "split": "h2s_ppm_roll_std_30_std", "split_condition": 0.00320445444, "yes": 11, "no": 12, "missing": 12, "children": [{"nodeid": 11, "leaf": -0.142238885}, {"nodeid": 12, "leaf": -0.0140254851}]}, {"nodeid": 6, "depth": 2, "split": "rh_pct_mean", "split_condition": 55.8570824, "yes": 13, "no": 14, "missing": 14, "children": [{"nodeid": 13, "leaf": -0.0898219198}, {"nodeid": 14, "leaf": 0.108491249}]}]}]}, {"nodeid": 0, "depth": 0, "split": "nh3_max", "split_condition": 0.0292967558, "yes": 1, "no": 2, "missing": 2, "children": [{"nodeid": 1, "depth": 1, "split": "nh3_roc_mean", "split_condition": 2.93044031e-05, "yes": 3, "no": 4, "missing": 4, "children": [{"nodeid": 3, "depth": 2, "split": "rh_pct_roll_mean_15_max", "split_condition": 77.1399994, "yes": 7, "no": 8, "missing": 8, "children": [{"nodeid": 7, "depth": 3, "split": "h2s_ppm_acc_slope", "split_condition": -9.67920641e-07, "yes": 13, "no": 14, "missing": 13, "children": [{"nodeid": 13, "leaf": -0.0345992334}, {"nodeid": 14, "leaf": -0.144781172}]}, {"nodeid": 8, "leaf": 0.0505218841}]}, {"nodeid": 4, "depth": 2, "split": "etoh_ppm_roll_std_60_max", "split_condition": 0.0251367707, "yes": 9, "no": 10, "missing": 10, "children": [{"nodeid": 9, "leaf": -0.0293924604}, {"nodeid": 10, "leaf": 0.093020469}]}]}, {"nodeid": 2, "depth": 1, "split": "nh3_acc_max", "split_condition": 4.59837102e-05, "yes": 5, "no": 6, "missing": 6, "children": [{"nodeid": 5, "leaf": -0.0478466675}, {"nodeid": 6, "depth": 2, "split": "nh3_roll_std_60_mean", "split_condition": 0.000114734328, "yes": 11, "no": 12, "missing": 12, "children": [{"nodeid": 11, "leaf": -0.0314255059}, {"nodeid": 12, "leaf": 0.144070163}]}]}]}, {"nodeid": 0, "depth": 0, "split": "hcho_roll_mean_15_mean", "split_condition": 0.0229689144, "yes": 1, "no": 2, "missing": 2, "children": [{"nodeid": 1, "depth": 1, "split": "rh_pct_slope", "split_condition": 0.00279522082, "yes": 3, "no": 4, "missing": 4, "children": [{"nodeid": 3, "depth": 2, "split": "nh3_roll_mean_15_slope", "split_condition": 7.50427125e-06, "yes": 7, "no": 8, "missing": 8, "children": [{"nodeid": 7, "leaf": 0.142437994}, {"nodeid": 8, "leaf": 0.0102155646}]}, {"nodeid": 4, "depth": 2, "split": "voc_roll_mean_15_max", "split_condition": 0.0056783976, "yes": 9, "no": 10, "missing": 10, "children": [{"nodeid": 9, "leaf": 0.0875594467}, {"nodeid": 10, "depth": 3, "split": "voc_roc_mean", "split_condition": -7.52921915e-05, "yes": 11, "no": 12, "missing": 12, "children": [{"nodeid": 11, "leaf": 0.0468178652}, {"nodeid": 12, "leaf": -0.11664322}]}]}]}, {"nodeid": 2, "depth": 1, "split": "hcho_roll_roc_60_mean", "split_condition": 1.6376518e-05, "yes": 5, "no": 6, "missing": 6, "children": [{"nodeid": 5, "leaf": -0.0365270562}, {"nodeid": 6, "leaf": -0.141742334}]}]}, {"nodeid": 0, "depth": 0, "split": "etoh_ppm_max", "split_condition": 0.566527724, "yes": 1, "no": 2, "missing": 2, "children": [{"nodeid": 1, "depth": 1, "split": "voc_roll_mean_15_max", "split_condition": 0.0440881811, "yes": 3, "no": 4, "missing": 4, "children": [{"nodeid": 3, "depth": 2, "split": "rh_pct_roll_std_30_slope", "split_condition": 0.00110883475, "yes": 5, "no": 6, "missing": 6, "children": [{"nodeid": 5, "leaf": -0.132745385}, {"nodeid": 6, "leaf": 0.00276041427}]}, {"nodeid": 4, "depth": 2, "split": "nh3_roll_std_60_max", "split_condition": 0.000495131186, "yes": 7, "no": 8, "missing": 8, "children": [{"nodeid": 7, "depth": 3, "split": "rh_pct_roll_mean_15_mean", "split_condition": 76.7348862, "yes": 9, "no": 10, "missing": 10, "children": [{"nodeid": 9, "leaf": 0.140633032}, {"nodeid": 10, "leaf": -0.00294467644}]}, {"nodeid": 8, "depth": 3, "split": "nh3_acc_std", "split_condition": 2.3400491e-05, "yes": 11, "no": 12, "missing": 12, "children": [{"nodeid": 11, "leaf": 0.0801171511}, {"nodeid": 12, "depth": 4, "split": "nh3_roll_mean_60_slope", "split_condition": 0.000118005439, "yes": 13, "no": 14, "missing": 14, "children": [{"nodeid": 13, "leaf": 0.00668560062}, {"nodeid": 14, "leaf": -0.0978479013}]}]}]}]}, {"nodeid": 2, "leaf": -0.135812923}]}, {"nodeid": 0, "depth": 0, "split": "nh3_max", "split_condition": 0.0292967558, "yes": 1, "no": 2, "missing": 2, "children": [{"nodeid": 1, "depth": 1, "split": "nh3_roll_mean_15_std", "split_condition": 0.000223274823, "yes": 3, "no": 4, "missing": 4, "children": [{"nodeid": 3, "depth": 2, "split": "rh_pct_roll_mean_60_max", "split_condition": 74.6286926, "yes": 7, "no": 8, "missing": 8, "children": [{"nodeid": 7, "leaf": -0.14091894}, {"nodeid": 8, "leaf": -0.0367137268}]}, {"nodeid": 4, "depth": 2, "split": "h2s_ppm_max", "split_condition": 0.133753687, "yes": 9, "no": 10, "missing": 10, "children": [{"nodeid": 9, "depth": 3, "split": "rh_pct_roll_mean_15_mean", "split_condition": 56.9000015, "yes": 15, "no": 16, "missing": 16, "children": [{"nodeid": 15, "leaf": -0.0442264639}, {"nodeid": 16, "leaf": 0.101163074}]}, {"nodeid": 10, "leaf": -0.0900448784}]}]}, {"nodeid": 2, "depth": 1, "split": "etoh_ppm_roll_std_60_mean", "split_condition": 0.000963800878, "yes": 5, "no": 6, "missing": 6, "children": [{"nodeid": 5, "depth": 2, "split": "hcho_mean", "split_condition": 0.0690328777, "yes": 11, "no": 12, "missing": 12, "children": [{"nodeid": 11, "depth": 3, "split": "hcho_acc_slope", "split_condition": -4.33429399e-08, "yes": 17, "no": 18, "missing": 18, "children": [{"nodeid": 17, "leaf": -0.00427861093}, {"nodeid": 18, "leaf": -0.0893318206}]}, {"nodeid": 12, "leaf": 0.0888163745}]}, {"nodeid": 6, "depth": 2, "split": "rh_pct_roc_slope", "split_condition": -0.000275976898, "yes": 13, "no": 14, "missing": 13, "children": [{"nodeid": 13, "leaf": 0.0166477337}, {"nodeid": 14, "leaf": 0.143984631}]}]}]}, {"nodeid": 0, "depth": 0, "split": "hcho_mean", "split_condition": 0.0354579836, "yes": 1, "no": 2, "missing": 2, "children": [{"nodeid": 1, "depth": 1, "split": "rh_pct_roc_mean", "split_condition": 0.00177107274, "yes": 3, "no": 4, "missing": 4, "children": [{"nodeid": 3, "depth": 2, "split": "nh3_acc_mean", "split_condition": 1.16636522e-06, "yes": 5, "no": 6, "missing": 6, "children": [{"nodeid": 5, "leaf": 0.136137962}, {"nodeid": 6, "leaf": 0.0222740192}]}, {"nodeid": 4, "depth": 2, "split": "voc_roc_max", "split_condition": 3.52673237e-06, "yes": 7, "no": 8, "missing": 8, "children": [{"nodeid": 7, "depth": 3, "split": "etoh_ppm_roll_std_60_mean", "split_condition": 0.000626992318, "yes": 9, "no": 10, "missing": 10, "children": [{"nodeid": 9, "leaf": 0.00587706408}, {"nodeid": 10, "leaf": 0.0821044222}]}, {"nodeid": 8, "leaf": -0.10255231}]}]}, {"nodeid": 2, "leaf": -0.138771728}]}, {"nodeid": 0, "depth": 0, "split": "etoh_ppm_roll_mean_15_max", "split_condition": 0.0744079202, "yes": 1, "no": 2, "missing": 2, "children": [{"nodeid": 1, "depth": 1, "split": "voc_roll_mean_60_mean", "split_condition": 0.0504696444, "yes": 3, "no": 4, "missing": 4, "children": [{"nodeid": 3, "depth": 2, "split": "rh_pct_roll_std_30_std", "split_condition": 0.58292073, "yes": 7, "no": 8, "missing": 8, "children": [{"nodeid": 7, "leaf": -0.113841429}, {"nodeid": 8, "leaf": 0.0637596175}]}, {"nodeid": 4, "depth": 2, "split": "rh_pct_mean", "split_condition": 42.1016655, "yes": 9, "no": 10, "missing": 10, "children": [{"nodeid": 9, "leaf": -0.013658056}, {"nodeid": 10, "leaf": 0.136012182}]}]}, {"nodeid": 2, "depth": 1, "split": "h2s_ppm_mean", "split_condition": 0.504613996, "yes": 5, "no": 6, "missing": 6, "children": [{"nodeid": 5, "depth": 2, "split": "h2s_ppm_acc_mean", "split_condition": -1.42534527e-05, "yes": 11, "no": 12, "missing": 12, "children": [{"nodeid": 11, "leaf": -0.0336530358}, {"nodeid": 12, "leaf": -0.134450689}]}, {"nodeid": 6, "depth": 2, "split": "rh_pct_mean", "split_condition": 63.996666, "yes": 13, "no": 14, "missing": 14, "children": [{"nodeid": 13, "leaf": -0.0585221015}, {"nodeid": 14, "leaf": 0.085515745}]}]}]}, {"nodeid": 0, "depth": 0, "split": "nh3_max", "split_condition": 0.0292967558, "yes": 1, "no": 2, "missing": 2, "children": [{"nodeid": 1, "depth": 1, "split": "nh3_roc_mean", "split_condition": 2.93044031e-05, "yes": 3, "no": 4, "missing": 4, "children": [{"nodeid": 3, "depth": 2, "split": "rh_pct_roll_mean_60_mean", "split_condition": 75.4393311, "yes": 7, "no": 8, "missing": 8, "children": [{"nodeid": 7, "leaf": -0.134566084}, {"nodeid": 8, "leaf": 0.0199798141}]}, {"nodeid": 4, "depth": 2, "split": "etoh_ppm_roll_std_60_std", "split_condition": 0.00485617295, "yes": 9, "no": 10, "missing": 10, "children": [{"nodeid": 9, "leaf": -0.0281748828}, {"nodeid": 10, "leaf": 0.0758147314}]}]}, {"nodeid": 2, "depth": 1, "split": "nh3_acc_max", "split_condition": 4.59837102e-05, "yes": 5, "no": 6, "missing": 6, "children": [{"nodeid": 5, "leaf": -0.044341743}, {"nodeid": 6, "depth": 2, "split": "nh3_roll_std_60_mean", "split_condition": 0.000136196541, "yes": 11, "no": 12, "missing": 12, "children": [{"nodeid": 11, "leaf": -0.0262441561}, {"nodeid": 12, "leaf": 0.136691675}]}]}]}, {"nodeid": 0, "depth": 0, "split": "hcho_mean", "split_condition": 0.0354579836, "yes": 1, "no": 2, "missing": 2, "children": [{"nodeid": 1, "depth": 1, "split": "rh_pct_roc_mean", "split_condition": 0.00177107274, "yes": 3, "no": 4, "missing": 4, "children": [{"nodeid": 3, "depth": 2, "split": "hcho_roll_std_30_slope", "split_condition": 1.25636075e-06, "yes": 5, "no": 6, "missing": 6, "children": [{"nodeid": 5, "leaf": 0.134310216}, {"nodeid": 6, "leaf": 0.0311297607}]}, {"nodeid": 4, "depth": 2, "split": "voc_roc_max", "split_condition": 3.52673237e-06, "yes": 7, "no": 8, "missing": 8, "children": [{"nodeid": 7, "leaf": 0.0547660626}, {"nodeid": 8, "leaf": -0.0955527052}]}]}, {"nodeid": 2, "leaf": -0.135293573}]}, {"nodeid": 0, "depth": 0, "split": "etoh_ppm_roll_mean_15_max", "split_condition": 0.0710508376, "yes": 1, "no": 2, "missing": 2, "children": [{"nodeid": 1, "depth": 1, "split": "voc_max", "split_condition": 0.025064772, "yes": 3, "no": 4, "missing": 4, "children": [{"nodeid": 3, "leaf": -0.0979637578}, {"nodeid": 4, "depth": 2, "split": "nh3_roll_mean_60_std", "split_condition": 0.00250745052, "yes": 7, "no": 8, "missing": 8, "children": [{"nodeid": 7, "depth": 3, "split": "rh_pct_max", "split_condition": 47.5999985, "yes": 11, "no": 12, "missing": 12, "children": [{"nodeid": 11, "leaf": 0.00508564385}, {"nodeid": 12, "leaf": 0.136635736}]}, {"nodeid": 8, "leaf": -0.0343506522}]}]}, {"nodeid": 2, "depth": 1, "split": "h2s_ppm_roll_mean_60_mean", "split_condition": 0.50325197, "yes": 5, "no": 6, "missing": 6, "children": [{"nodeid": 5, "depth": 2, "split": "h2s_ppm_roll_std_15_std", "split_condition": 0.00129480043, "yes": 9, "no": 10, "missing": 10, "children": [{"nodeid": 9, "leaf": -0.129660979}, {"nodeid": 10, "leaf": -0.0363668986}]}, {"nodeid": 6, "leaf": 0.0207419768}]}]}, {"nodeid": 0, "depth": 0, "split": "nh3_max", "split_condition": 0.0292967558, "yes": 1, "no": 2, "missing": 2, "children": [{"nodeid": 1, "depth": 1, "split": "nh3_roll_mean_15_std", "split_condition": 0.000223274823, "yes": 3, "no": 4, "missing": 4, "children": [{"nodeid": 3, "leaf": -0.128096402}, {"nodeid": 4, "depth": 2, "split": "hcho_roc_max", "split_condition": 6.91550595e-05, "yes": 7, "no": 8, "missing": 8, "children": [{"nodeid": 7, "leaf": -0.0605947115}, {"nodeid": 8, "depth": 3, "split": "voc_roc_mean", "split_condition": 0.000206213866, "yes": 11, "no": 12, "missing": 12, "children": [{"nodeid": 11, "leaf": 0.0730499923}, {"nodeid": 12, "leaf": -0.00870495196}]}]}]}, {"nodeid": 2, "depth": 1, "split": "hcho_mean", "split_condition": 0.0690328777, "yes": 5, "no": 6, "missing": 6, "children": [{"nodeid": 5, "depth": 2, "split": "rh_pct_max", "split_condition": 60.0999985, "yes": 9, "no": 10, "missing": 10, "children": [{"nodeid": 9, "leaf": -0.0903806761}, {"nodeid": 10, "leaf": 0.100654878}]}, {"nodeid": 6, "leaf": 0.136025757}]}]}, {"nodeid": 0, "depth": 0, "split": "hcho_mean", "split_condition": 0.0354579836, "yes": 1, "no": 2, "missing": 2, "children": [{"nodeid": 1, "depth": 1, "split": "rh_pct_roc_mean", "split_condition": 0.00177107274, "yes": 3, "no": 4, "missing": 4, "children": [{"nodeid": 3, "depth": 2, "split": "hcho_roll_std_30_slope", "split_condition": 1.25636075e-06, "yes": 5, "no": 6, "missing": 6, "children": [{"nodeid": 5, "leaf": 0.129676476}, {"nodeid": 6, "leaf": 0.0277467873}]}, {"nodeid": 4, "depth": 2, "split": "voc_roc_max", "split_condition": 3.52673237e-06, "yes": 7, "no": 8, "missing": 8, "children": [{"nodeid": 7, "leaf": 0.0501209833}, {"nodeid": 8, "leaf": -0.0885769427}]}]}, {"nodeid": 2, "leaf": -0.131331414}]}, {"nodeid": 0, "depth": 0, "split": "etoh_ppm_max", "split_condition": 0.057675954, "yes": 1, "no": 2, "missing": 2, "children": [{"nodeid": 1, "depth": 1, "split": "voc_roll_mean_60_mean", "split_condition": 0.0504696444, "yes": 3, "no": 4, "missing": 4, "children": [{"nodeid": 3, "depth": 2, "split": "hcho_acc_std", "split_condition": 0.000144216654, "yes": 7, "no": 8, "missing": 8, "children": [{"nodeid": 7, "leaf": -0.100871749}, {"nodeid": 8, "leaf": 0.0522042736}]}, {"nodeid": 4, "depth": 2, "split": "rh_pct_mean", "split_condition": 42.1016655, "yes": 9, "no": 10, "missing": 10, "children": [{"nodeid": 9, "leaf": -0.00451686513}, {"nodeid": 10, "leaf": 0.129380375}]}]}, {"nodeid": 2, "depth": 1, "split": "h2s_ppm_mean", "split_condition": 0.504613996, "yes": 5, "no": 6, "missing": 6, "children": [{"nodeid": 5, "leaf": -0.118219011}, {"nodeid": 6, "leaf": 0.0243678372}]}]}, {"nodeid": 0, "depth": 0, "split": "nh3_mean", "split_condition": 0.0205065012, "yes": 1, "no": 2, "missing": 2, "children": [{"nodeid": 1, "depth": 1, "split": "nh3_roc_slope", "split_condition": 8.36045217e-07, "yes": 3, "no": 4, "missing": 3, "children": [{"nodeid": 3, "depth": 2, "split": "nh3_roll_roc_30_slope", "split_condition": -2.61041293e-07, "yes": 7, "no": 8, "missing": 8, "children": [{"nodeid": 7, "leaf": -0.0355649963}, {"nodeid": 8, "leaf": -0.130438492}]}, {"nodeid": 4, "leaf": 0.0270988438}]}, {"nodeid": 2, "depth": 1, "split": "nh3_acc_max", "split_condition": 4.59837102e-05, "yes": 5, "no": 6, "missing": 6, "children": [{"nodeid": 5, "leaf": -0.0648527741}, {"nodeid": 6, "depth": 2, "split": "hcho_roll_mean_15_std", "split_condition": 0.000142074976, "yes": 9, "no": 10, "missing": 10, "children": [{"nodeid": 9, "leaf": -0.00360785099}, {"nodeid": 10, "leaf": 0.126839459}]}]}]}, {"nodeid": 0, "depth": 0, "split": "hcho_mean", "split_condition": 0.0354579836, "yes": 1, "no": 2, "missing": 2, "children": [{"nodeid": 1, "depth": 1, "split": "rh_pct_roc_mean", "split_condition": 0.00177107274, "yes": 3, "no": 4, "missing": 4, "children": [{"nodeid": 3, "depth": 2, "split": "hcho_roll_std_30_slope", "split_condition": 1.25636075e-06, "yes": 5, "no": 6, "missing": 6, "children": [{"nodeid": 5, "leaf": 0.12440718}, {"nodeid": 6, "leaf": 0.0237027686}]}, {"nodeid": 4, "depth": 2, "split": "voc_roc_max", "split_condition": 3.52673237e-06, "yes": 7, "no": 8, "missing": 8, "children": [{"nodeid": 7, "leaf": 0.0461076535}, {"nodeid": 8, "leaf": -0.0819461942}]}]}, {"nodeid": 2, "leaf": -0.127020612}]}, {"nodeid": 0, "depth": 0, "split": "voc_roll_mean_15_max", "split_condition": 0.0478151701, "yes": 1, "no": 2, "missing": 2, "children": [{"nodeid": 1, "depth": 1, "split": "voc_roll_std_30_slope", "split_condition": 1.29930481e-06, "yes": 3, "no": 4, "missing": 4, "children": [{"nodeid": 3, "leaf": -0.115876786}, {"nodeid": 4, "leaf": -0.0247517973}]}, {"nodeid": 2, "depth": 1, "split": "nh3_max", "split_condition": 0.0561059155, "yes": 5, "no": 6, "missing": 6, "children": [{"nodeid": 5, "depth": 2, "split": "etoh_ppm_roll_mean_30_mean", "split_condition": 0.18601647, "yes": 7, "no": 8, "missing": 8, "children": [{"nodeid": 7, "depth": 3, "split": "nh3_roll_mean_60_std", "split_condition": 0.00250745052, "yes": 9, "no": 10, "missing": 10, "children": [{"nodeid": 9, "leaf": 0.126082852}, {"nodeid": 10, "leaf": -0.0112915831}]}, {"nodeid": 8, "leaf": -0.0244336128}]}, {"nodeid": 6, "leaf": -0.108726673}]}]}, {"nodeid": 0, "depth": 0, "split": "nh3_roll_std_60_mean", "split_condition": 0.000149210842, "yes": 1, "no": 2, "missing": 2, "children": [{"nodeid": 1, "depth": 1, "split": "etoh_ppm_mean", "split_condition": 0.305546284, "yes": 3, "no": 4, "missing": 4, "children": [{"nodeid": 3, "leaf": -0.124041021}, {"nodeid": 4, "leaf": -0.0308627989}]}, {"nodeid": 2, "depth": 1, "split": "hcho_roll_mean_30_mean", "split_condition": 0.0199809875, "yes": 5, "no": 6, "missing": 6, "children": [{"nodeid": 5, "depth": 2, "split": "hcho_roc_slope", "split_condition": 5.44081615e-07, "yes": 7, "no": 8, "missing": 7, "children": [{"nodeid": 7, "leaf": -0.0873920023}, {"nodeid": 8, "leaf": 0.0243036542}]}, {"nodeid": 6, "depth": 2, "split": "nh3_roll_mean_15_max", "split_condition": 0.0233687032, "yes": 9, "no": 10, "missing": 10, "children": [{"nodeid": 9, "leaf": -0.0129390527}, {"nodeid": 10, "depth": 3, "split": "rh_pct_roc_mean", "split_condition": 0.038333334, "yes": 11, "no": 12, "missing": 12, "children": [{"nodeid": 11, "leaf": 0.126638919}, {"nodeid": 12, "leaf": 0.010313347}]}]}]}]}, {"nodeid": 0, "depth": 0, "split": "hcho_mean", "split_condition": 0.0354579836, "yes": 1, "no": 2, "missing": 2, "children": [{"nodeid": 1, "depth": 1, "split": "voc_roc_mean", "split_condition": 1.79308699e-05, "yes": 3, "no": 4, "missing": 4, "children": [{"nodeid": 3, "depth": 2, "split": "rh_pct_max", "split_condition": 66.5, "yes": 5, "no": 6, "missing": 6, "children": [{"nodeid": 5, "depth": 3, "split": "hcho_acc_mean", "split_condition": 4.13970326e-07, "yes": 7, "no": 8, "missing": 8, "children": [{"nodeid": 7, "leaf": 0.124043211}, {"nodeid": 8, "leaf": 0.017853085}]}, {"nodeid": 6, "leaf": -0.0274246763}]}, {"nodeid": 4, "leaf": -0.0589412339}]}, {"nodeid": 2, "leaf": -0.121957861}]}, {"nodeid": 0, "depth": 0, "split": "etoh_ppm_max", "split_condition": 0.566527724, "yes": 1, "no": 2, "missing": 2, "children": [{"nodeid": 1, "depth": 1, "split": "voc_roll_mean_15_max", "split_condition": 0.0440881811, "yes": 3, "no": 4, "missing": 4, "children": [{"nodeid": 3, "depth": 2, "split": "h2s_ppm_roc_slope", "split_condition": 1.1375455e-06, "yes": 5, "no": 6, "missing": 6, "children": [{"nodeid": 5, "leaf": -0.0990475491}, {"nodeid": 6, "leaf": -0.0268946514}]}, {"nodeid": 4, "depth": 2, "split": "nh3_roll_mean_60_std", "split_condition": 0.00250745052, "yes": 7, "no": 8, "missing": 8, "children": [{"nodeid": 7, "depth": 3, "split": "nh3_roll_mean_60_slope", "split_condition": -4.02509249e-06, "yes": 9, "no": 10, "missing": 10, "children": [{"nodeid": 9, "leaf": 0.00687122811}, {"nodeid": 10, "depth": 4, "split": "nh3_roll_mean_15_max", "split_condition": 0.0280934032, "yes": 11, "no": 12, "missing": 12, "children": [{"nodeid": 11, "leaf": 0.125529885}, {"nodeid": 12, "leaf": 0.0310934223}]}]}, {"nodeid": 8, "leaf": -0.0261831265}]}]}, {"nodeid": 2, "leaf": -0.110823013}]}, {"nodeid": 0, "depth": 0, "split": "nh3_roll_std_60_mean", "split_condition": 0.000149210842, "yes": 1, "no": 2, "missing": 2, "children": [{"nodeid": 1, "leaf": -0.108565658}, {"nodeid": 2, "depth": 1, "split": "hcho_roll_mean_30_mean", "split_condition": 0.0199809875, "yes": 3, "no": 4, "missing": 4, "children": [{"nodeid": 3, "depth": 2, "split": "hcho_roc_slope", "split_condition": 3.4922715e-07, "yes": 5, "no": 6, "missing": 5, "children": [{"nodeid": 5, "leaf": -0.0801257491}, {"nodeid": 6, "leaf": 0.0221865941}]}, {"nodeid": 4, "depth": 2, "split": "etoh_ppm_max", "split_condition": 0.0350287668, "yes": 7, "no": 8, "missing": 8, "children": [{"nodeid": 7, "depth": 3, "split": "hcho_roc_std", "split_condition": 5.6957997e-05, "yes": 9, "no": 10, "missing": 10, "children": [{"nodeid": 9, "leaf": -0.0396843888}, {"nodeid": 10, "leaf": 0.0603275448}]}, {"nodeid": 8, "leaf": 0.116230078}]}]}]}, {"nodeid": 0, "depth": 0, "split": "rh_pct_roc_mean", "split_condition": 0.00132206478, "yes": 1, "no": 2, "missing": 2, "children": [{"nodeid": 1, "depth": 1, "split": "nh3_roc_mean", "split_condition": 1.00167631e-06, "yes": 3, "no": 4, "missing": 4, "children": [{"nodeid": 3, "leaf": 0.112675473}, {"nodeid": 4, "leaf": 0.010621354}]}, {"nodeid": 2, "depth": 1, "split": "voc_mean", "split_condition": 0.00522651756, "yes": 5, "no": 6, "missing": 6, "children": [{"nodeid": 5, "leaf": 0.0389117561}, {"nodeid": 6, "depth": 2, "split": "voc_roll_roc_30_slope", "split_condition": -8.69017583e-07, "yes": 7, "no": 8, "missing": 8, "children": [{"nodeid": 7, "leaf": -0.0303325336}, {"nodeid": 8, "leaf": -0.119442351}]}]}]}, {"nodeid": 0, "depth": 0, "split": "etoh_ppm_max", "split_condition": 0.0397728309, "yes": 1, "no": 2, "missing": 2, "children": [{"nodeid": 1, "depth": 1, "split": "voc_roll_mean_60_mean", "split_condition": 0.0504696444, "yes": 3, "no": 4, "missing": 4, "children": [{"nodeid": 3, "depth": 2, "split": "voc_roc_max", "split_condition": 0.00100778381, "yes": 7, "no": 8, "missing": 8, "children": [{"nodeid": 7, "leaf": -0.0886975005}, {"nodeid": 8, "leaf": 0.0343692265}]}, {"nodeid": 4, "depth": 2, "split": "rh_pct_mean", "split_condition": 48.876667, "yes": 9, "no": 10, "missing": 10, "children": [{"nodeid": 9, "leaf": 0.0163509734}, {"nodeid": 10, "leaf": 0.114147179}]}]}, {"nodeid": 2, "depth": 1, "split": "h2s_ppm_roll_mean_60_mean", "split_condition": 0.50325197, "yes": 5, "no": 6, "missing": 6, "children": [{"nodeid": 5, "leaf": -0.102272712}, {"nodeid": 6, "leaf": 0.0221273452}]}]}, {"nodeid": 0, "depth": 0, "split": "nh3_roll_std_60_mean", "split_condition": 0.000136196541, "yes": 1, "no": 2, "missing": 2, "children": [{"nodeid": 1, "leaf": -0.104854733}, {"nodeid": 2, "depth": 1, "split": "hcho_roll_mean_30_mean", "split_condition": 0.0180066209, "yes": 3, "no": 4, "missing": 4, "children": [{"nodeid": 3, "leaf": -0.0391189009}, {"nodeid": 4, "depth": 2, "split": "nh3_max", "split_condition": 0.0242339056, "yes": 5, "no": 6, "missing": 6, "children": [{"nodeid": 5, "leaf": -0.0117403213}, {"nodeid": 6, "depth": 3, "split": "rh_pct_roc_mean", "split_condition": 0.038333334, "yes": 7, "no": 8, "missing": 8, "children": [{"nodeid": 7, "leaf": 0.117267057}, {"nodeid": 8, "leaf": 0.00625538686}]}]}]}]}, {"nodeid": 0, "depth": 0, "split": "hcho_mean", "split_condition": 0.0354579836, "yes": 1, "no": 2, "missing": 2, "children": [{"nodeid": 1, "depth": 1, "split": "hcho_roc_mean", "split_condition": 1.18090138e-05, "yes": 3, "no": 4, "missing": 4, "children": [{"nodeid": 3, "depth": 2, "split": "voc_mean", "split_condition": 0.0780813769, "yes": 5, "no": 6, "missing": 6, "children": [{"nodeid": 5, "leaf": 0.11453934}, {"nodeid": 6, "leaf": -0.0182265453}]}, {"nodeid": 4, "leaf": -0.0510812104}]}, {"nodeid": 2, "leaf": -0.11185316}]}, {"nodeid": 0, "depth": 0, "split": "voc_roll_mean_15_max", "split_condition": 0.0478151701, "yes": 1, "no": 2, "missing": 2, "children": [{"nodeid": 1, "leaf": -0.0853932798}, {"nodeid": 2, "depth": 1, "split": "nh3_max", "split_condition": 0.0561059155, "yes": 3, "no": 4, "missing": 4, "children": [{"nodeid": 3, "depth": 2, "split": "etoh_ppm_roll_mean_30_mean", "split_condition": 0.18601647, "yes": 5, "no": 6, "missing": 6, "children": [{"nodeid": 5, "depth": 3, "split": "nh3_roll_roc_60_max", "split_condition": 0.000142838995, "yes": 7, "no": 8, "missing": 8, "children": [{"nodeid": 7, "leaf": 0.118845306}, {"nodeid": 8, "leaf": 0.0124989562}]}, {"nodeid": 6, "leaf": -0.0140787493}]}, {"nodeid": 4, "leaf": -0.0911761373}]}]}, {"nodeid": 0, "depth": 0, "split": "nh3_mean", "split_condition": 0.0554842688, "yes": 1, "no": 2, "missing": 2, "children": [{"nodeid": 1, "depth": 1, "split": "nh3_roll_std_30_mean", "split_condition": 0.000113800583, "yes": 3, "no": 4, "missing": 4, "children": [{"nodeid": 3, "leaf": -0.101039879}, {"nodeid": 4, "depth": 2, "split": "rh_pct_roll_mean_60_mean", "split_condition": 52.5340271, "yes": 5, "no": 6, "missing": 6, "children": [{"nodeid": 5, "leaf": -0.046058014}, {"nodeid": 6, "depth": 3, "split": "h2s_ppm_roll_mean_60_mean", "split_condition": 0.0235968754, "yes": 7, "no": 8, "missing": 8, "children": [{"nodeid": 7, "leaf": 0.0804963335}, {"nodeid": 8, "leaf": 0.0106901024}]}]}]}, {"nodeid": 2, "leaf": 0.107071072}]}, {"nodeid": 0, "depth": 0, "split": "voc_roc_mean", "split_condition": 7.93203344e-06, "yes": 1, "no": 2, "missing": 2, "children": [{"nodeid": 1, "depth": 1, "split": "nh3_mean", "split_condition": 0.0216916725, "yes": 3, "no": 4, "missing": 4, "children": [{"nodeid": 3, "depth": 2, "split": "nh3_roc_max", "split_condition": 6.49450158e-05, "yes": 5, "no": 6, "missing": 6, "children": [{"nodeid": 5, "leaf": 0.109339833}, {"nodeid": 6, "leaf": 0.0107696}]}, {"nodeid": 4, "leaf": -0.0417528041}]}, {"nodeid": 2, "leaf": -0.0977567211}]}, {"nodeid": 0, "depth": 0, "split": "etoh_ppm_max", "split_condition": 0.566527724, "yes": 1, "no": 2, "missing": 2, "children": [{"nodeid": 1, "depth": 1, "split": "voc_roll_mean_60_mean", "split_condition": 0.0504696444, "yes": 3, "no": 4, "missing": 4, "children": [{"nodeid": 3, "depth": 2, "split": "voc_roc_max", "split_condition": 0.000924808148, "yes": 5, "no": 6, "missing": 6, "children": [{"nodeid": 5, "leaf": -0.0885980427}, {"nodeid": 6, "leaf": 0.0210948866}]}, {"nodeid": 4, "depth": 2, "split": "nh3_roll_mean_60_max", "split_condition": 0.0349402279, "yes": 7, "no": 8, "missing": 8, "children": [{"nodeid": 7, "leaf": 0.0958651602}, {"nodeid": 8, "leaf": 0.00291293953}]}]}, {"nodeid": 2, "leaf": -0.0929920226}]}, {"nodeid": 0, "depth": 0, "split": "nh3_mean", "split_condition": 0.0205065012, "yes": 1, "no": 2, "missing": 2, "children": [{"nodeid": 1, "depth": 1, "split": "nh3_roc_mean", "split_condition": 5.24579991e-05, "yes": 3, "no": 4, "missing": 4, "children": [{"nodeid": 3, "leaf": -0.0997508541}, {"nodeid": 4, "leaf": 0.0281934422}]}, {"nodeid": 2, "depth": 1, "split": "nh3_acc_max", "split_condition": 5.02580733e-05, "yes": 5, "no": 6, "missing": 6, "children": [{"nodeid": 5, "leaf": -0.0504186638}, {"nodeid": 6, "depth": 2, "split": "etoh_ppm_roll_std_60_max", "split_condition": 0.00106754934, "yes": 7, "no": 8, "missing": 8, "children": [{"nodeid": 7, "leaf": 0.0245078728}, {"nodeid": 8, "leaf": 0.109914325}]}]}]}, {"nodeid": 0, "depth": 0, "split": "rh_pct_roc_mean", "split_condition": 0.00132206478, "yes": 1, "no": 2, "missing": 2, "children": [{"nodeid": 1, "depth": 1, "split": "nh3_roc_mean", "split_condition": 6.74024561e-43, "yes": 3, "no": 4, "missing": 4, "children": [{"nodeid": 3, "leaf": 0.0949694812}, {"nodeid": 4, "leaf": 0.00840701163}]}, {"nodeid": 2, "depth": 1, "split": "voc_roc_max", "split_condition": 3.52673237e-06, "yes": 5, "no": 6, "missing": 6, "children": [{"nodeid": 5, "leaf": 0.023822194}, {"nodeid": 6, "leaf": -0.102885701}]}]}, {"nodeid": 0, "depth": 0, "split": "etoh_ppm_max", "split_condition": 0.057675954, "yes": 1, "no": 2, "missing": 2, "children": [{"nodeid": 1, "depth": 1, "split": "voc_roll_mean_60_mean", "split_condition": 0.0504696444, "yes": 3, "no": 4, "missing": 4, "children": [{"nodeid": 3, "depth": 2, "split": "hcho_roc_max", "split_condition": 0.000735677779, "yes": 7, "no": 8, "missing": 8, "children": [{"nodeid": 7, "leaf": -0.071467638}, {"nodeid": 8, "leaf": 0.0200649798}]}, {"nodeid": 4, "depth": 2, "split": "nh3_roll_std_60_max", "split_condition": 0.000382417114, "yes": 9, "no": 10, "missing": 10, "children": [{"nodeid": 9, "leaf": 0.0983195379}, {"nodeid": 10, "leaf": 0.0272946563}]}]}, {"nodeid": 2, "depth": 1, "split": "h2s_ppm_roll_mean_30_mean", "split_condition": 0.181846485, "yes": 5, "no": 6, "missing": 6, "children": [{"nodeid": 5, "leaf": -0.0960376412}, {"nodeid": 6, "leaf": 0.0116052469}]}]}, {"nodeid": 0, "depth": 0, "split": "nh3_roll_std_60_mean", "split_condition": 0.000136196541, "yes": 1, "no": 2, "missing": 2, "children": [{"nodeid": 1, "leaf": -0.0881018788}, {"nodeid": 2, "depth": 1, "split": "nh3_acc_max", "split_condition": 4.59837102e-05, "yes": 3, "no": 4, "missing": 4, "children": [{"nodeid": 3, "leaf": -0.0385276601}, {"nodeid": 4, "depth": 2, "split": "nh3_max", "split_condition": 0.024691768, "yes": 5, "no": 6, "missing": 6, "children": [{"nodeid": 5, "leaf": -0.0133548276}, {"nodeid": 6, "leaf": 0.09921588}]}]}]}, {"nodeid": 0, "depth": 0, "split": "hcho_max", "split_condition": 0.00101674779, "yes": 1, "no": 2, "missing": 2, "children": [{"nodeid": 1, "depth": 1, "split": "voc_roll_mean_60_max", "split_condition": 0.00120190554, "yes": 3, "no": 4, "missing": 4, "children": [{"nodeid": 3, "leaf": 0.089078784}, {"nodeid": 4, "leaf": 0.0159694403}]}, {"nodeid": 2, "depth": 1, "split": "rh_pct_roll_mean_60_mean", "split_condition": 42.4003334, "yes": 5, "no": 6, "missing": 6, "children": [{"nodeid": 5, "leaf": 0.0142081166}, {"nodeid": 6, "leaf": -0.0949382931}]}]}, {"nodeid": 0, "depth": 0, "split": "h2s_ppm_roll_mean_15_max", "split_condition": 0.137668952, "yes": 1, "no": 2, "missing": 2, "children": [{"nodeid": 1, "depth": 1, "split": "etoh_ppm_roll_std_60_max", "split_condition": 0.00215788325, "yes": 3, "no": 4, "missing": 4, "children": [{"nodeid": 3, "depth": 2, "split": "voc_roll_mean_60_mean", "split_condition": 0.0504696444, "yes": 7, "no": 8, "missing": 8, "children": [{"nodeid": 7, "leaf": -0.0436553769}, {"nodeid": 8, "leaf": 0.0568835363}]}, {"nodeid": 4, "leaf": -0.0861403644}]}, {"nodeid": 2, "depth": 1, "split": "rh_pct_max", "split_condition": 51.3276443, "yes": 5, "no": 6, "missing": 6, "children": [{"nodeid": 5, "leaf": -0.0283167418}, {"nodeid": 6, "leaf": 0.0872191712}]}]}, {"nodeid": 0, "depth": 0, "split": "nh3_mean", "split_condition": 0.0554842688, "yes": 1, "no": 2, "missing": 2, "children": [{"nodeid": 1, "depth": 1, "split": "nh3_roc_mean", "split_condition": 2.93044031e-05, "yes": 3, "no": 4, "missing": 4, "children": [{"nodeid": 3, "depth": 2, "split": "rh_pct_max", "split_condition": 67.5999985, "yes": 5, "no": 6, "missing": 6, "children": [{"nodeid": 5, "leaf": -0.100800738}, {"nodeid": 6, "leaf": -0.00190771243}]}, {"nodeid": 4, "depth": 2, "split": "rh_pct_roll_mean_60_mean", "split_condition": 47.5271378, "yes": 7, "no": 8, "missing": 8, "children": [{"nodeid": 7, "leaf": -0.0206452906}, {"nodeid": 8, "leaf": 0.0656777695}]}]}, {"nodeid": 2, "leaf": 0.0899836645}]}, {"nodeid": 0, "depth": 0, "split": "voc_roc_mean", "split_condition": 7.93203344e-06, "yes": 1, "no": 2, "missing": 2, "children": [{"nodeid": 1, "depth": 1, "split": "rh_pct_roll_mean_15_mean", "split_condition": 44.1727791, "yes": 3, "no": 4, "missing": 4, "children": [{"nodeid": 3, "leaf": 0.0890999436}, {"nodeid": 4, "leaf": -0.0145459007}]}, {"nodeid": 2, "leaf": -0.0835895613}]}, {"nodeid": 0, "depth": 0, "split": "etoh_ppm_max", "split_condition": 0.0456392728, "yes": 1, "no": 2, "missing": 2, "children": [{"nodeid": 1, "depth": 1, "split": "voc_roll_mean_60_mean", "split_condition": 0.0504696444, "yes": 3, "no": 4, "missing": 4, "children": [{"nodeid": 3, "leaf": -0.0282642655}, {"nodeid": 4, "depth": 2, "split": "nh3_roll_std_60_max", "split_condition": 0.000382417114, "yes": 7, "no": 8, "missing": 8, "children": [{"nodeid": 7, "leaf": 0.0883975402}, {"nodeid": 8, "leaf": 0.0241142008}]}]}, {"nodeid": 2, "depth": 1, "split": "nh3_max", "split_condition": 0.018599201, "yes": 5, "no": 6, "missing": 6, "children": [{"nodeid": 5, "leaf": -0.00136320712}, {"nodeid": 6, "leaf": -0.0823118687}]}]}, {"nodeid": 0, "depth": 0, "split": "nh3_acc_max", "split_condition": 4.59837102e-05, "yes": 1, "no": 2, "missing": 2, "children": [{"nodeid": 1, "leaf": -0.0703205466}, {"nodeid": 2, "depth": 1, "split": "nh3_mean", "split_condition": 0.0205065012, "yes": 3, "no": 4, "missing": 4, "children": [{"nodeid": 3, "leaf": -0.0308127087}, {"nodeid": 4, "depth": 2, "split": "etoh_ppm_roll_std_60_max", "split_condition": 0.00496227341, "yes": 5, "no": 6, "missing": 6, "children": [{"nodeid": 5, "leaf": 0.0228694156}, {"nodeid": 6, "leaf": 0.0950214937}]}]}]}, {"nodeid": 0, "depth": 0, "split": "rh_pct_roc_mean", "split_condition": 0.00132206478, "yes": 1, "no": 2, "missing": 2, "children": [{"nodeid": 1, "depth": 1, "split": "nh3_max", "split_condition": 0.00138123252, "yes": 3, "no": 4, "missing": 4, "children": [{"nodeid": 3, "leaf": 0.079832077}, {"nodeid": 4, "leaf": 0.0134754609}]}, {"nodeid": 2, "depth": 1, "split": "hcho_max", "split_condition": 0.0165860821, "yes": 5, "no": 6, "missing": 6, "children": [{"nodeid": 5, "leaf": 0.00741989352}, {"nodeid": 6, "leaf": -0.0922772884}]}]}, {"nodeid": 0, "depth": 0, "split": "voc_roll_mean_15_max", "split_condition": 0.0478151701, "yes": 1, "no": 2, "missing": 2, "children": [{"nodeid": 1, "leaf": -0.064557597}, {"nodeid": 2, "depth": 1, "split": "nh3_roll_mean_60_max", "split_condition": 0.0349402279, "yes": 3, "no": 4, "missing": 4, "children": [{"nodeid": 3, "depth": 2, "split": "h2s_ppm_max", "split_condition": 0.116671942, "yes": 5, "no": 6, "missing": 6, "children": [{"nodeid": 5, "leaf": 0.0187292565}, {"nodeid": 6, "leaf": 0.0905560032}]}, {"nodeid": 4, "leaf": -0.0431923792}]}]}, {"nodeid": 0, "depth": 0, "split": "nh3_roll_std_30_mean", "split_condition": 0.000113800583, "yes": 1, "no": 2, "missing": 2, "children": [{"nodeid": 1, "leaf": -0.0668297559}, {"nodeid": 2, "depth": 1, "split": "voc_roll_roc_60_mean", "split_condition": 0.000314152479, "yes": 3, "no": 4, "missing": 4, "children": [{"nodeid": 3, "leaf": 0.0718002096}, {"nodeid": 4, "leaf": -0.0152806127}]}]}, {"nodeid": 0, "depth": 0, "split": "voc_roc_mean", "split_condition": 7.93203344e-06, "yes": 1, "no": 2, "missing": 2, "children": [{"nodeid": 1, "depth": 1, "split": "rh_pct_roll_mean_15_mean", "split_condition": 44.1727791, "yes": 3, "no": 4, "missing": 4, "children": [{"nodeid": 3, "leaf": 0.0813851953}, {"nodeid": 4, "leaf": -0.0125427954}]}, {"nodeid": 2, "leaf": -0.0751755983}]}, {"nodeid": 0, "depth": 0, "split": "etoh_ppm_max", "split_condition": 0.0456392728, "yes": 1, "no": 2, "missing": 2, "children": [{"nodeid": 1, "depth": 1, "split": "voc_roll_mean_60_mean", "split_condition": 0.0504696444, "yes": 3, "no": 4, "missing": 4, "children": [{"nodeid": 3, "leaf": -0.0253359098}, {"nodeid": 4, "leaf": 0.0706296936}]}, {"nodeid": 2, "leaf": -0.0534584895}]}, {"nodeid": 0, "depth": 0, "split": "nh3_max", "split_condition": 0.0565410741, "yes": 1, "no": 2, "missing": 2, "children": [{"nodeid": 1, "depth": 1, "split": "hcho_roc_mean", "split_condition": 1.80689185e-05, "yes": 3, "no": 4, "missing": 4, "children": [{"nodeid": 3, "depth": 2, "split": "rh_pct_roll_mean_60_max", "split_condition": 64.9000015, "yes": 5, "no": 6, "missing": 6, "children": [{"nodeid": 5, "leaf": -0.0845225081}, {"nodeid": 6, "leaf": -0.01642121}]}, {"nodeid": 4, "leaf": 0.0196389053}]}, {"nodeid": 2, "leaf": 0.0739389807}]}, {"nodeid": 0, "depth": 0, "split": "rh_pct_roc_mean", "split_condition": 0.00177107274, "yes": 1, "no": 2, "missing": 2, "children": [{"nodeid": 1, "depth": 1, "split": "rh_pct_roll_mean_60_mean", "split_condition": 43.7486649, "yes": 3, "no": 4, "missing": 4, "children": [{"nodeid": 3, "leaf": 0.0742393062}, {"nodeid": 4, "leaf": 0.00553123839}]}, {"nodeid": 2, "leaf": -0.0603977442}]}, {"nodeid": 0, "depth": 0, "split": "h2s_ppm_roll_mean_15_max", "split_condition": 0.137668952, "yes": 1, "no": 2, "missing": 2, "children": [{"nodeid": 1, "depth": 1, "split": "etoh_ppm_roll_std_60_max", "split_condition": 0.00215788325, "yes": 3, "no": 4, "missing": 4, "children": [{"nodeid": 3, "leaf": 0.00440513063}, {"nodeid": 4, "leaf": -0.0722066909}]}, {"nodeid": 2, "depth": 1, "split": "rh_pct_max", "split_condition": 57.4721107, "yes": 5, "no": 6, "missing": 6, "children": [{"nodeid": 5, "leaf": -0.00555604231}, {"nodeid": 6, "leaf": 0.0737240836}]}]}, {"nodeid": 0, "depth": 0, "split": "nh3_mean", "split_condition": 0.0205065012, "yes": 1, "no": 2, "missing": 2, "children": [{"nodeid": 1, "depth": 1, "split": "nh3_roll_std_60_std", "split_condition": 0.000214799991, "yes": 3, "no": 4, "missing": 4, "children": [{"nodeid": 3, "leaf": -0.0818263218}, {"nodeid": 4, "leaf": 0.0146962302}]}, {"nodeid": 2, "depth": 1, "split": "nh3_acc_max", "split_condition": 6.69202636e-05, "yes": 5, "no": 6, "missing": 6, "children": [{"nodeid": 5, "leaf": -0.00688092317}, {"nodeid": 6, "leaf": 0.0750778168}]}]}, {"nodeid": 0, "depth": 0, "split": "hcho_max", "split_condition": 0.00101674779, "yes": 1, "no": 2, "missing": 2, "children": [{"nodeid": 1, "leaf": 0.0596260577}, {"nodeid": 2, "depth": 1, "split": "rh_pct_mean", "split_condition": 45.8966675, "yes": 3, "no": 4, "missing": 4, "children": [{"nodeid": 3, "leaf": 0.00369280367}, {"nodeid": 4, "leaf": -0.0770305991}]}]}, {"nodeid": 0, "depth": 0, "split": "voc_roll_mean_15_max", "split_condition": 0.0478151701, "yes": 1, "no": 2, "missing": 2, "children": [{"nodeid": 1, "leaf": -0.055339396}, {"nodeid": 2, "depth": 1, "split": "nh3_roll_mean_60_max", "split_condition": 0.0349402279, "yes": 3, "no": 4, "missing": 4, "children": [{"nodeid": 3, "depth": 2, "split": "h2s_ppm_max", "split_condition": 0.116671942, "yes": 5, "no": 6, "missing": 6, "children": [{"nodeid": 5, "leaf": 0.0168828219}, {"nodeid": 6, "leaf": 0.0797623694}]}, {"nodeid": 4, "leaf": -0.0373200551}]}]}, {"nodeid": 0, "depth": 0, "split": "nh3_max", "split_condition": 0.0565410741, "yes": 1, "no": 2, "missing": 2, "children": [{"nodeid": 1, "depth": 1, "split": "hcho_roc_mean", "split_condition": 1.80689185e-05, "yes": 3, "no": 4, "missing": 4, "children": [{"nodeid": 3, "leaf": -0.0642720535}, {"nodeid": 4, "leaf": 0.0168655328}]}, {"nodeid": 2, "leaf": 0.0672063679}]}, {"nodeid": 0, "depth": 0, "split": "voc_roc_mean", "split_condition": 9.95728078e-06, "yes": 1, "no": 2, "missing": 2, "children": [{"nodeid": 1, "depth": 1, "split": "rh_pct_roll_mean_15_mean", "split_condition": 44.1727791, "yes": 3, "no": 4, "missing": 4, "children": [{"nodeid": 3, "leaf": 0.0714956373}, {"nodeid": 4, "leaf": -0.0111969421}]}, {"nodeid": 2, "leaf": -0.0669794306}]}, {"nodeid": 0, "depth": 0, "split": "rh_pct_acc_mean", "split_condition": 7.63502896e-07, "yes": 1, "no": 2, "missing": 2, "children": [{"nodeid": 1, "depth": 1, "split": "rh_pct_acc_mean", "split_condition": -1.18423795e-16, "yes": 3, "no": 4, "missing": 4, "children": [{"nodeid": 3, "leaf": 0.0301376078}, {"nodeid": 4, "depth": 2, "split": "voc_max", "split_condition": 0.0891751871, "yes": 5, "no": 6, "missing": 6, "children": [{"nodeid": 5, "leaf": -0.0700211972}, {"nodeid": 6, "leaf": -0.017572958}]}]}, {"nodeid": 2, "leaf": 0.0552924573}]}, {"nodeid": 0, "depth": 0, "split": "nh3_acc_max", "split_condition": 4.59837102e-05, "yes": 1, "no": 2, "missing": 2, "children": [{"nodeid": 1, "leaf": -0.057711754}, {"nodeid": 2, "depth": 1, "split": "nh3_mean", "split_condition": 0.0205065012, "yes": 3, "no": 4, "missing": 4, "children": [{"nodeid": 3, "leaf": -0.0242612641}, {"nodeid": 4, "leaf": 0.0688738003}]}]}, {"nodeid": 0, "depth": 0, "split": "rh_pct_roc_mean", "split_condition": 0.00132206478, "yes": 1, "no": 2, "missing": 2, "children": [{"nodeid": 1, "leaf": 0.0481551811}, {"nodeid": 2, "leaf": -0.0508044772}]}, {"nodeid": 0, "depth": 0, "split": "etoh_ppm_max", "split_condition": 0.0456392728, "yes": 1, "no": 2, "missing": 2, "children": [{"nodeid": 1, "depth": 1, "split": "voc_roll_mean_60_mean", "split_condition": 0.0504696444, "yes": 3, "no": 4, "missing": 4, "children": [{"nodeid": 3, "leaf": -0.0198836718}, {"nodeid": 4, "leaf": 0.0623509772}]}, {"nodeid": 2, "leaf": -0.0471519046}]}, {"nodeid": 0, "depth": 0, "split": "etoh_ppm_roll_roc_60_max", "split_condition": 0.00114557962, 